Language model created by QuickLM on Fri Jun 30 09:15:50 EDT 2017
Copyright (c) 1996-2010 Carnegie Mellon University and Alexander I. Rudnicky

The model is in standard ARPA format, designed by Doug Paul while he was at MITRE.

The code that was used to produce this language model is available in Open Source.
Please visit http://www.speech.cs.cmu.edu/tools/ for more information

The (fixed) discount mass is 0.5. The backoffs are computed using the ratio method.
This model based on a corpus of 1380 sentences and 386 words

\data\
ngram 1=386
ngram 2=1344
ngram 3=2162

\1-grams:
-4.0882 ... -0.2759
-3.9121 1969 -0.2976
-3.9121 1972 -0.2976
-3.6902 1989 -0.2759
-3.4350 3 -0.3003
-3.9121 3776M -0.3010
-2.9268 5 -0.3003
-3.6902 7, -0.3009
-3.7871 80 -0.3010
-1.2493 </s> -0.3010
-1.2493 <s> -0.1932
-2.5200 A -0.2960
-3.2131 A: -0.2689
-3.6902 ABOUT -0.3009
-3.7871 ABOVE -0.2739
-3.4861 ACCESS -0.2948
-3.0275 ACCOMPANY -0.2970
-3.9121 AFFILIATION -0.2694
-2.6488 AFTER -0.2949
-3.6902 AKIHITO -0.3009
-3.0882 ALEX -0.2476
-3.7871 ALEX, -0.2961
-3.6111 ALL -0.3009
-4.3892 AMAZING -0.2759
-1.9452 AND -0.2867
-4.3892 ANNOUNCED -0.3010
-2.8451 ANSWER -0.2997
-3.0090 APPLE -0.2640
-4.0882 APPLE, -0.2961
-2.6816 ARE -0.2719
-2.8094 ARENA -0.2759
-3.6902 ARM -0.2993
-2.1014 AT -0.2733
-3.4350 B -0.2967
-3.0882 BACK -0.2759
-4.3892 BAD -0.2759
-2.8577 BAR -0.2613
-3.2753 BARBARA -0.2602
-3.6902 BARBARA, -0.2961
-2.7171 BATHROOM -0.2640
-3.1104 BE -0.3007
-2.7457 BED -0.2337
-3.1588 BED, -0.2939
-2.9420 BEDROOM -0.2705
-3.7871 BEDROOM, -0.2991
-3.0670 BEDSIDE -0.2704
-3.9121 BEDSIDE, -0.2991
-4.3892 BEEN -0.3010
-3.2131 BEER -0.2594
-3.9121 BEER, -0.2961
-2.6568 BEFORE -0.3001
-4.3892 BEHIND -0.2740
-2.7660 BEING -0.3003
-3.6111 BELL -0.3009
-4.3892 BIG -0.2759
-3.7871 BIGGEST -0.2994
-4.0882 BLOCK -0.3009
-4.3892 BLOSSOM -0.2961
-3.3892 BOOKCASE -0.2751
-3.1339 BOWL -0.2417
-4.3892 BOY -0.2970
-3.2753 BRIAN -0.2594
-4.0882 BRIAN, -0.2961
-2.8094 BRING -0.2627
-4.0882 BUG -0.3006
-3.6111 BUST -0.3007
-2.7871 BUT -0.3003
-2.7660 BY -0.2740
-3.5441 C -0.3007
-2.7171 CABINET -0.2633
-3.2131 CABINET, -0.2934
-4.0882 CAN -0.2999
-2.8841 CANDIES -0.2603
-3.2431 CENTER -0.2979
-3.5441 CEREALS -0.3009
-2.9578 CHARLIE -0.2576
-3.6902 CHARLIE, -0.2961
-4.3892 CHERRY -0.3010
-3.6902 CHOCOLATE -0.3004
-3.9121 CIRCA -0.3010
-4.3892 CITY -0.3008
-3.6111 CLOSED. -0.2759
-3.1588 CLOTH -0.2390
-2.9420 COKE -0.2594
-4.3892 COKE, -0.2961
-3.0090 COME -0.3000
-2.5763 COMMAND -0.2983
-4.0882 COMPUTER -0.3010
-3.3892 CONTAINERS -0.2649
-4.0882 CONTAINERS, -0.2961
-4.3892 COOL -0.2759
-2.8451 CORRIDOR -0.2706
-3.7871 CORRIDOR, -0.2982
-2.7764 COULD -0.3001
-3.2431 COUNTER -0.2751
-4.0882 COUNTER, -0.2990
-4.0882 COUNTRY -0.2759
-2.8210 CUPBOARD -0.2633
-3.9121 CUPBOARD, -0.2993
-3.3478 DAY -0.2972
-4.0882 DEFINED -0.2990
-2.9742 DELIVER -0.2714
-4.3892 DENNIS -0.3010
-2.7080 DESK -0.2633
-3.3478 DESK, -0.2943
-3.1104 DESTINATION -0.2983
-3.6111 DEVELOPED -0.3000
-2.7660 DEVIATE -0.3002
-2.4971 DINING -0.2979
-3.9121 DO -0.3001
-4.0882 DOES -0.2740
-4.0882 DOMESTIC -0.3009
-3.6111 DOORS -0.2949
-3.0670 DRAWER -0.2706
-3.7871 DRAWER, -0.2982
-3.9121 DREAM -0.2999
-3.9121 DREAMS? -0.2759
-3.0882 DRINKS -0.2661
-4.3892 DRINKS, -0.2961
-2.5763 DSPL -0.2961
-2.9742 EDWARD -0.2550
-4.0882 EDWARD, -0.2961
-4.0882 EGG -0.2759
-3.9121 ELECTRIC -0.3010
-2.9420 ELSE -0.2970
-3.3892 EMPEROR -0.2959
-3.4861 ERIK -0.2580
-4.0882 ERIK, -0.2961
-3.0882 ERIKA -0.2594
-4.3892 ERIKA, -0.2961
-3.0670 ESCORT -0.2979
-4.3892 FAST -0.2759
-3.9121 FEMALE -0.2758
-2.5899 FIND -0.2687
-3.7871 FLAKES -0.2668
-2.3892 FOLLOW -0.2924
-2.9913 FOOD -0.2631
-2.3210 FOR -0.2691
-3.3892 FRIDGE -0.2706
-4.0882 FRIDGE, -0.3002
-2.2653 FROM -0.2645
-4.0882 FROM? -0.2759
-3.9121 FUJI, -0.3008
-4.0882 FURNITURE -0.2759
-3.9121 GENDER -0.2999
-3.1104 GET -0.2737
-4.0882 GIRL -0.2970
-4.3892 GIRLS -0.2759
-2.8094 GIVE -0.2692
-4.0882 GLASS -0.2733
-2.4254 GO -0.2683
-4.3892 GOOD -0.2759
-3.1104 GRASP -0.2740
-4.3892 GREAT -0.2759
-3.3478 GUIDE -0.2708
-2.7660 GUIDED -0.2994
-3.1851 HANNA -0.2578
-3.7871 HANNA, -0.2961
-4.3892 HASN'T -0.3010
-3.9121 HAVE -0.3010
-3.3100 HE -0.3008
-3.4861 HEAVIEST -0.2993
-2.7871 HER -0.2653
-3.2431 HER, -0.2961
-3.6111 HIGHEST -0.3009
-2.6183 HIM -0.2653
-3.0090 HIM, -0.2961
-3.6902 HIS -0.3009
-4.3892 HOSTED? -0.2759
-2.6902 HOW -0.3001
-4.3892 HUGE -0.2759
-4.0882 HUMAN -0.3010
-3.9121 I -0.3010
-2.0370 IN -0.2720
-2.7660 INDICATED -0.3003
-3.5441 INTO -0.2740
-3.5441 INVENTED -0.2740
-2.2017 IS -0.2553
-2.5379 IT -0.2674
-4.0882 IT? -0.2759
-4.3892 ITS -0.3010
-3.4861 JACKIE -0.2624
-4.0882 JACKIE, -0.2961
-3.6902 JANUARY -0.3009
-3.3478 JAPAN -0.2729
-3.4350 JAPAN? -0.2759
-4.3892 JAPANESE -0.3010
-4.3892 JOKE -0.2759
-3.1851 KEN -0.2606
-3.6902 KEN, -0.2961
-2.7557 KITCHEN -0.2695
-3.6111 LABS -0.2759
-3.5441 LANGUAGE? -0.2759
-3.6902 LARGEST -0.2993
-3.1588 LEAD -0.2970
-3.6902 LEAGUE -0.2759
-2.9268 LEAST -0.3005
-3.3892 LEFT -0.2979
-3.9121 LEVEL -0.2759
-3.6902 LIGHTEST -0.2986
-3.7871 LITTLE -0.3010
-3.7871 LIVE -0.2970
-2.2621 LIVING -0.2963
-2.7171 LOCATE -0.2715
-2.6990 LOOK -0.2990
-3.3100 LOST -0.3001
-4.3892 LYING -0.3009
-3.6902 MAJESTY -0.3009
-4.3892 MALE -0.3009
-4.3892 MAN -0.2970
-3.1339 MANJU -0.2616
-3.7871 MANJU, -0.2961
-2.6902 MANY -0.2955
-4.0882 MAY -0.2999
-2.1388 ME -0.2441
-2.3285 MEET -0.2678
-3.5441 MELON -0.2733
-3.1851 MICHAEL -0.2594
-3.7871 MICHAEL, -0.2961
-3.7871 MILLION -0.2759
-2.9268 MINTS -0.2596
-3.7871 MINTS, -0.2961
-3.6111 MONTH -0.2694
-3.6902 MOST -0.3006
-4.0882 MOTH -0.3010
-3.9121 MOUNT -0.3010
-4.0882 MOVABLE -0.3006
-4.0882 MUG -0.2733
-2.4254 MUST -0.2982
-4.3892 NAH -0.2759
-2.8451 NAME -0.2747
-2.6183 NAVIGATE -0.2949
-4.3892 NEXT -0.3010
-3.9121 NO -0.2758
-4.3892 NONE -0.2759
-3.3478 NOODLES -0.2616
-3.9121 NOODLES, -0.2961
-2.9420 NOT -0.2976
-3.0090 OBJECT -0.2932
-2.7660 OBJECTS -0.2952
-2.5899 OF -0.2736
-2.7557 OFFICE -0.2695
-3.6111 OFFICE, -0.2982
-2.3722 ON -0.2739
-2.5200 ONLY -0.2757
-4.0882 OPEN -0.3009
-2.5631 OPL -0.2745
-4.0882 OR -0.3010
-4.3892 ORNAMENTAL -0.3010
-2.8094 OUTSIDE -0.2740
-3.7871 OVER -0.3010
-2.9913 PAPRIKA -0.2596
-3.9121 PAPRIKA, -0.2961
-3.3100 PEANUTS -0.2616
-3.9121 PEANUTS, -0.2961
-3.4861 PEOPLE -0.2970
-4.3892 PEPPER -0.2759
-2.4024 PERSON -0.2928
-3.6902 PERSON, -0.2961
-3.1339 PICK -0.3007
-2.6410 PLACE -0.2675
-3.6902 PLATFORM -0.3009
-2.6410 PLEASE -0.2606
-3.6111 POINT -0.2970
-3.9121 POINTING -0.3008
-3.9121 POSE -0.2999
-3.5441 POUR -0.3009
-3.1104 PRINGLES -0.2616
-3.9121 PRINGLES, -0.2961
-3.5441 PROGRAMMING -0.3009
-3.0670 PUT -0.2726
-3.2131 Q: -0.2986
-2.5441 QUESTION -0.2694
-4.3892 QUICK -0.2759
-3.9121 REACHES -0.3010
-2.6568 REACHING -0.2726
-2.7660 REFEREE -0.3001
-4.0882 RELAY -0.2759
-2.1562 REMARKS -0.2759
-3.4861 REPLACE -0.2991
-3.6902 RIGHT -0.2991
-3.6902 RISING -0.3008
-4.3892 RITCHIE. -0.2759
-4.3892 ROBOCUP -0.3007
-2.6111 ROBOT -0.2701
-4.3892 ROBOTICS -0.3010
-2.5319 ROOM -0.2629
-3.9121 ROOM, -0.2990
-4.0882 SAKURA -0.2730
-3.6902 SAMA -0.2983
-3.0468 SAMANTHA -0.2476
-3.6111 SAMANTHA, -0.2961
-2.9420 SAME -0.2998
-3.1851 SAMUEL -0.2574
-4.0882 SAMUEL, -0.2961
-3.3100 SAY -0.2723
-3.9121 SEA -0.3010
-3.7871 SENBEI -0.2732
-3.9121 SHEEP. -0.2759
-3.2431 SHELF -0.2698
-3.1851 SIDESHELF -0.2698
-4.3892 SIDESHELF, -0.3002
-3.6902 SINCE -0.3009
-2.7557 SINK -0.2633
-3.0670 SINK, -0.2943
-3.9121 SITTING -0.2993
-4.3892 SIZE -0.2759
-2.9420 SKYLER -0.2507
-3.7871 SKYLER, -0.2961
-4.3892 SMALL -0.2759
-3.1851 SNACKS -0.2662
-3.2431 SOAP -0.2596
-4.0882 SOAP, -0.2961
-4.3892 SOCIAL -0.3009
-4.3892 SOFTBANK -0.3010
-3.5441 SOME -0.3009
-3.6902 SOMEONE -0.2970
-3.6902 SOMEONE, -0.2961
-3.6902 SOMETHING -0.3009
-2.9420 SOMEWHERE -0.3005
-3.3100 SOPHIE -0.2574
-4.3892 SOPHIE, -0.2961
-4.0882 SPONGE -0.2759
-2.6111 STAND -0.2337
-3.1339 STAND, -0.2930
-3.6902 STANDARD -0.3009
-3.9121 STANDING -0.2740
-4.3892 START -0.2759
-4.3892 STAY -0.2759
-4.3892 STOP -0.2759
-4.0882 SUPPORT -0.3000
-3.3892 SUSHI -0.2668
-2.2557 TABLE -0.2337
-2.8094 TABLE, -0.2915
-2.8094 TAKE -0.2708
-3.3100 TAKEN -0.2987
-3.1104 TEA -0.2662
-3.6111 TEAM'S -0.3003
-4.3892 TEAM? -0.2759
-2.3323 TELL -0.2702
-3.9121 TERM -0.2989
-4.3892 THANK -0.3001
-4.3892 THANKS -0.2759
-1.2189 THE -0.2654
-2.7457 THERE -0.2974
-3.9121 THINNEST -0.2996
-2.5763 THIS -0.2999
-3.2431 THOMAS -0.2601
-3.7871 THOMAS, -0.2961
-4.3892 THOMPSON -0.2961
-3.2431 THREE -0.2994
-4.3892 TIAGO -0.2759
-3.5441 TIME -0.2664
-1.8552 TO -0.2558
-4.3892 TODAY -0.2759
-4.3892 TODAY? -0.2759
-3.2431 TOILETRIES -0.2691
-3.7871 TOP -0.2999
-4.0882 TOYOTA -0.3010
-4.0882 TRAPPED -0.2970
-3.1851 TRAY -0.2689
-4.3892 TREE -0.2759
-2.4971 TV -0.2996
-3.1339 UP -0.2740
-3.6902 USED -0.2970
-3.3100 WAS -0.3008
-4.3892 WAVING -0.2993
-3.9121 WEEK -0.2694
-3.4861 WHAT -0.2980
-3.3892 WHAT'S -0.2740
-2.7080 WHEN -0.3001
-4.0882 WHERE -0.3010
-3.2431 WHICH -0.2990
-3.6111 WHO -0.2982
-3.2131 WILL -0.2996
-3.3892 WITH -0.2978
-4.0882 WOMAN, -0.2961
-4.3892 YEAH -0.2759
-4.3892 YEAR'S -0.3010
-4.3892 YES -0.2759
-4.3892 YET. -0.2759
-2.6816 YOU -0.2645
-3.5441 YOUR -0.3009
-3.6902 YOURSELF -0.2694
-4.3892 ﻿MEET -0.3007
-4.3892 ﻿TIAGO -0.2759

\2-grams:
-0.3010 ... </s> -0.3010
-0.3010 1969 AT -0.2943
-0.3010 1972 AT -0.2943
-0.3010 1989 </s> -0.3010
-0.3010 3 OBJECTS -0.0843
-0.3010 3776M ABOVE -0.0969
-0.3010 5 OBJECTS 0.0000
-0.3010 7, 1989 0.0000
-0.3010 80 MILLION 0.0000
-3.1399 <s> A -0.2891
-2.2648 <s> A: 0.0000
-2.6628 <s> ACCOMPANY -0.2181
-2.7419 <s> ALEX -0.2304
-2.6628 <s> ALL 0.0000
-3.4409 <s> AMAZING 0.0000
-2.4409 <s> ANSWER 0.0000
-2.5958 <s> APPLE -0.2109
-2.9638 <s> B -0.2218
-3.4409 <s> BAD 0.0000
-2.9638 <s> BAR -0.0813
-2.8388 <s> BARBARA -0.2285
-2.9638 <s> BATHROOM -0.0988
-2.9638 <s> BED -0.1047
-3.1399 <s> BEDROOM -0.0580
-3.1399 <s> BEDSIDE -0.0757
-2.9638 <s> BEER -0.2389
-3.4409 <s> BIG 0.0000
-3.1399 <s> BLOCK 0.0000
-3.4409 <s> BOOKCASE -0.0792
-3.1399 <s> BRIAN -0.2663
-2.0095 <s> BRING -0.0330
-3.1399 <s> C -0.1963
-2.7419 <s> CABINET -0.0838
-2.3995 <s> CANDIES -0.2109
-3.1399 <s> CENTER -0.0300
-2.6628 <s> CHARLIE -0.2407
-2.9638 <s> CHOCOLATE 0.0000
-2.9638 <s> CLOTH -0.2319
-2.6628 <s> COKE -0.2430
-3.4409 <s> COME -0.0348
-2.8388 <s> CONTAINERS -0.1761
-3.4409 <s> COOL 0.0000
-3.4409 <s> CORRIDOR -0.0580
-1.8281 <s> COULD 0.0000
-3.1399 <s> COUNTER -0.0300
-2.8388 <s> CUPBOARD -0.0550
-2.7419 <s> DELIVER -0.2478
-3.1399 <s> DESK -0.0896
-2.1622 <s> DESTINATION 0.0000
-2.6628 <s> DINING -0.0810
-3.4409 <s> DO 0.0000
-2.9638 <s> DRAWER -0.0580
-2.5378 <s> DRINKS -0.1761
-2.8388 <s> EDWARD -0.2478
-3.4409 <s> ERIK -0.2730
-2.6628 <s> ERIKA -0.2175
-2.6628 <s> ESCORT -0.2341
-3.4409 <s> FAST 0.0000
-1.7975 <s> FIND -0.0699
-3.4409 <s> FLAKES -0.2430
-2.0095 <s> FOLLOW -0.1523
-2.4409 <s> FOOD -0.2041
-3.1399 <s> FRIDGE -0.0414
-3.4409 <s> FROM -0.2978
-2.5958 <s> GET -0.2126
-1.9785 <s> GIVE -0.0435
-3.4409 <s> GLASS -0.1761
-1.6850 <s> GO 0.0000
-3.4409 <s> GOOD 0.0000
-2.2368 <s> GRASP 0.0000
-3.4409 <s> GREAT 0.0000
-2.9638 <s> GUIDE -0.2139
-3.1399 <s> HANNA -0.2430
-2.7419 <s> HIS 0.0000
-3.1399 <s> HOW 0.0000
-3.4409 <s> HUGE 0.0000
-3.4409 <s> I 0.0000
-3.4409 <s> IN -0.3001
-1.9938 <s> IS -0.2596
-3.4409 <s> IT -0.2980
-2.7419 <s> KEN -0.2272
-3.1399 <s> KITCHEN -0.0478
-2.6628 <s> LEAD -0.2167
-2.8388 <s> LIVING -0.0716
-2.0259 <s> LOCATE -0.0269
-1.8846 <s> LOOK 0.0000
-2.8388 <s> MANJU -0.2361
-1.8177 <s> MEET -0.1646
-3.1399 <s> MELON -0.1549
-2.9638 <s> MICHAEL -0.2430
-2.6628 <s> MINTS -0.2366
-3.4409 <s> MUG -0.1761
-3.4409 <s> NAH 0.0000
-1.7877 <s> NAVIGATE 0.0000
-3.4409 <s> NO -0.2218
-3.4409 <s> NONE 0.0000
-2.9638 <s> NOODLES -0.2374
-2.7419 <s> PAPRIKA -0.2355
-3.4409 <s> PEANUTS -0.2632
-2.1856 <s> PICK 0.0000
-1.8177 <s> PLACE -0.0969
-2.1856 <s> PLEASE -0.0647
-2.9638 <s> POUR 0.0000
-2.7419 <s> PRINGLES -0.2398
-2.5958 <s> PUT -0.2093
-2.2648 <s> Q: 0.0000
-1.8968 <s> QUESTION -0.0580
-3.4409 <s> QUICK 0.0000
-1.2079 <s> REMARKS 0.0000
-2.5378 <s> REPLACE 0.0000
-2.2648 <s> ROBOT -0.2430
-2.5958 <s> SAMANTHA -0.1891
-2.7419 <s> SAMUEL -0.1938
-2.7419 <s> SAY -0.1513
-3.4409 <s> SENBEI -0.2430
-3.4409 <s> SIDESHELF -0.0512
-3.1399 <s> SINK -0.0908
-3.4409 <s> SIZE 0.0000
-2.6628 <s> SKYLER -0.2430
-3.4409 <s> SMALL 0.0000
-2.7419 <s> SNACKS -0.2272
-3.4409 <s> SOAP -0.2852
-3.1399 <s> SOPHIE -0.2632
-3.1399 <s> SPONGE 0.0000
-3.4409 <s> START 0.0000
-3.4409 <s> STAY 0.0000
-3.4409 <s> STOP 0.0000
-2.8388 <s> SUSHI -0.2041
-2.1187 <s> TAKE -0.1362
-1.4541 <s> TELL -0.0038
-3.4409 <s> THANK 0.0000
-3.4409 <s> THANKS 0.0000
-1.5324 <s> THE -0.2829
-3.4409 <s> THERE -0.2910
-1.6280 <s> THIS 0.0000
-3.1399 <s> THOMAS -0.2518
-3.4409 <s> TIAGO 0.0000
-2.8388 <s> TOILETRIES -0.1761
-2.8388 <s> TV -0.0902
-3.1399 <s> WHAT -0.1761
-2.7419 <s> WHEN -0.2730
-3.4409 <s> WHERE 0.0000
-3.1399 <s> WHICH -0.2156
-2.6628 <s> WHO 0.0000
-3.4409 <s> YEAH 0.0000
-3.4409 <s> YES 0.0000
-3.4409 <s> ﻿MEET 0.0000
-3.4409 <s> ﻿TIAGO 0.0000
-2.1703 A BOY 0.0000
-2.1703 A CANDIES -0.2109
-2.1703 A CONTAINERS -0.1761
-1.8692 A DRINKS -0.1761
-1.8692 A FEMALE -0.1249
-1.8692 A GIRL 0.0000
-2.1703 A JOKE 0.0000
-1.5682 A LITTLE 0.0000
-2.1703 A LYING 0.0000
-2.1703 A MALE 0.0000
-2.1703 A MAN 0.0000
-1.8692 A MOTH 0.0000
-1.8692 A MOVABLE 0.0000
-1.5682 A PERSON -0.2201
-2.1703 A POINTING -0.1249
-0.6262 A QUESTION 0.0000
-1.8692 A RELAY 0.0000
-2.1703 A RISING -0.2041
-2.1703 A SAKURA -0.1761
-1.6931 A SITTING 0.0000
-2.1703 A STANDING -0.2218
-1.6931 A TOILETRIES -0.1761
-1.8692 A WOMAN, 0.0000
-1.1761 A: ... 0.0000
-1.1761 A: A -0.2891
-1.4771 A: C -0.1963
-1.4771 A: FROM -0.2978
-1.1761 A: I 0.0000
-1.4771 A: SAKURA -0.1761
-0.7782 A: THE -0.2997
-1.4771 A: THERE -0.2910
-0.3010 ABOUT YOURSELF 0.0000
-0.4260 ABOVE SEA 0.0000
-0.9031 ABOVE THE -0.3003
-0.4260 ACCESS DOORS 0.0000
-0.9031 ACCESS TO -0.2998
-1.6628 ACCOMPANY BRIAN -0.2478
-1.6628 ACCOMPANY CHARLIE -0.2676
-1.3617 ACCOMPANY EDWARD -0.2840
-1.3617 ACCOMPANY ERIK -0.2430
-1.6628 ACCOMPANY ERIKA -0.2672
-0.9638 ACCOMPANY HER -0.1303
-0.7085 ACCOMPANY HIM -0.0353
-1.6628 ACCOMPANY MICHAEL -0.2730
-1.6628 ACCOMPANY SAMUEL -0.2872
-0.4771 AFFILIATION </s> -0.3010
-0.7782 AFFILIATION TO -0.2998
-1.5643 AFTER B -0.2218
-2.0414 AFTER CHARLIE -0.2676
-2.0414 AFTER EDWARD -0.2663
-1.0414 AFTER HER -0.0512
-1.1383 AFTER HER, 0.0000
-1.0000 AFTER HIM -0.1322
-0.8653 AFTER HIM, 0.0000
-1.7404 AFTER IT -0.2457
-2.0414 AFTER SAMANTHA -0.2258
-2.0414 AFTER SKYLER -0.2932
-2.0414 AFTER SOPHIE -0.2430
-2.0414 AFTER THOMAS -0.2852
-0.3010 AKIHITO SAMA 0.0000
-1.0000 ALEX </s> -0.3010
-1.6021 ALEX AND -0.2916
-0.7570 ALEX AT -0.0720
-1.3010 ALEX FROM -0.0435
-1.6021 ALEX IN -0.0316
-1.6021 ALEX IS -0.2823
-1.6021 ALEX MUST -0.2717
-1.3010 ALEX OUTSIDE 0.0000
-1.6021 ALEX TO -0.0851
-0.3010 ALEX, AND -0.2661
-0.3010 ALL ACCESS -0.0969
-0.3010 AMAZING </s> -0.3010
-1.5989 AND ACCOMPANY -0.1434
-1.3471 AND ANSWER 0.0000
-2.2680 AND BRING -0.2835
-1.7037 AND COME -0.0348
-1.4663 AND DELIVER -0.1035
-2.7451 AND DENNIS 0.0000
-1.5690 AND ESCORT -0.1091
-1.4898 AND FOLLOW -0.2601
-2.1430 AND GIVE -0.2775
-1.4663 AND GO -0.0047
-2.0461 AND GUIDE -0.1891
-2.7451 AND ITS 0.0000
-1.7037 AND LEAD -0.1313
-1.7037 AND NAVIGATE 0.0000
-0.9322 AND OPL -0.0128
-1.5989 AND PLACE -0.2430
-1.6311 AND PUT -0.1402
-1.9000 AND SAY 0.0000
-1.6659 AND TAKE -0.2264
-1.7451 AND TELL -0.2715
-0.3010 ANNOUNCED YET. 0.0000
-0.3010 ANSWER A -0.1838
-0.7270 APPLE </s> -0.3010
-0.8361 APPLE FROM -0.0435
-1.2041 APPLE ON -0.0164
-1.2041 APPLE THERE -0.0193
-1.3802 APPLE TO -0.0851
-0.3010 APPLE, AND -0.2753
-2.0086 ARE FEMALE -0.2218
-2.0086 ARE GIRLS 0.0000
-0.3854 ARE ON -0.0164
-1.7076 ARE STANDING -0.1249
-1.3096 ARE THE -0.3003
-0.3010 ARENA </s> -0.3010
-0.3010 ARM PERSON -0.2201
-1.8107 AT BELL 0.0000
-1.1264 AT LEAST 0.0000
-0.3874 AT THE -0.2118
-0.7782 B IN -0.2981
-0.7782 B PROGRAMMING 0.0000
-0.7782 B WAS -0.1761
-0.3010 BACK </s> -0.3010
-0.3010 BAD </s> -0.3010
-0.4011 BAR </s> -0.3010
-1.3554 BAR AND -0.2867
-1.8325 BAR FROM -0.0435
-1.5315 BAR TO -0.0851
-1.8325 BAR WITH -0.2553
-1.1139 BARBARA </s> -0.3010
-0.5699 BARBARA AT -0.0720
-1.4150 BARBARA IS -0.2823
-1.4150 BARBARA MUST -0.2717
-1.4150 BARBARA OUTSIDE 0.0000
-1.4150 BARBARA TO -0.0851
-0.3010 BARBARA, AND -0.2592
-0.4291 BATHROOM </s> -0.3010
-1.0700 BATHROOM AND -0.2669
-1.3711 BATHROOM TO -0.0851
-0.8016 BE CLOSED. 0.0000
-1.5798 BE HOSTED? 0.0000
-0.5006 BE TAKEN 0.0000
-0.4393 BED </s> -0.3010
-1.3424 BED AND -0.2669
-1.9445 BED BUT -0.1139
-1.9445 BED THE -0.2997
-1.1663 BED TO -0.0819
-1.0544 BED, BUT -0.2304
-1.0544 BED, FOLLOW -0.2672
-0.9294 BED, GO -0.2237
-0.7533 BED, MEET -0.2677
-1.5315 BED, YOU -0.2924
-0.3680 BEDROOM </s> -0.3010
-1.2711 BEDROOM AND -0.2728
-1.7482 BEDROOM BUST 0.0000
-0.6021 BEDROOM, FIND -0.2725
-0.6021 BEDROOM, LOCATE -0.2869
-0.3928 BEDSIDE </s> -0.3010
-1.1461 BEDSIDE AND -0.2875
-1.6232 BEDSIDE WITH -0.2553
-0.4771 BEDSIDE, FIND -0.1549
-0.7782 BEDSIDE, LOCATE -0.1203
-0.3010 BEEN ANNOUNCED 0.0000
-0.8751 BEER </s> -0.3010
-1.4771 BEER FROM -0.0435
-1.0000 BEER IN -0.0316
-1.4771 BEER ON -0.0164
-0.8751 BEER THERE -0.0193
-1.4771 BEER TO -0.2978
-1.4771 BEER WITH -0.2788
-0.3010 BEER, AND -0.2686
-0.3010 BEFORE REACHING 0.0000
-0.3010 BEHIND THE -0.2993
-0.3010 BEING GUIDED 0.0000
-0.3010 BELL LABS 0.0000
-0.3010 BIG </s> -0.3010
-0.9031 BIGGEST FOOD -0.2742
-0.6021 BIGGEST OBJECT -0.0969
-0.9031 BIGGEST OBJECTS -0.2518
-0.3010 BLOCK ACCESS -0.2430
-0.3010 BLOSSOM AND -0.3002
-0.3979 BOOKCASE </s> -0.3010
-1.0000 BOOKCASE BUT -0.1139
-0.7112 BOWL </s> -0.3010
-1.0792 BOWL IN -0.0316
-0.9542 BOWL THE -0.2969
-0.9542 BOWL THERE -0.0193
-0.3010 BOY IN -0.0316
-1.4150 BRIAN </s> -0.3010
-0.7160 BRIAN AT -0.0720
-1.4150 BRIAN FROM -0.0435
-1.4150 BRIAN IS -0.2823
-1.1139 BRIAN OUTSIDE 0.0000
-0.9379 BRIAN TO -0.0851
-0.3010 BRIAN, AND -0.2711
-1.4037 BRING IT -0.2132
-0.4337 BRING ME -0.1629
-1.2788 BRING THE -0.2939
-1.4037 BRING TO -0.2966
-0.3010 BUG COME -0.2825
-0.3010 BUST BE -0.2264
-0.8239 BUT HE 0.0000
-0.4559 BUT SOMEWHERE 0.0000
-0.3010 BY THE -0.2948
-0.5441 C PROGRAMMING 0.0000
-0.6690 C WAS -0.1761
-0.4049 CABINET </s> -0.3010
-1.6721 CABINET AND -0.2769
-1.9731 CABINET BUT -0.1139
-1.1280 CABINET TO -0.0809
-1.4771 CABINET, COME -0.0348
-1.4771 CABINET, FOLLOW -0.2810
-1.4771 CABINET, GO -0.2237
-1.1761 CABINET, LOCATE -0.1203
-1.4771 CABINET, LOOK 0.0000
-0.5229 CABINET, MEET -0.2656
-0.3010 CAN FIND -0.2834
-0.7270 CANDIES </s> -0.3010
-1.1072 CANDIES FROM -0.0435
-0.7270 CANDIES IN -0.0316
-1.8062 CANDIES ON -0.0164
-1.8062 CANDIES TO -0.2875
-1.8062 CANDIES WITH -0.2553
-0.3332 CENTER TABLE -0.0786
-1.4472 CENTER TABLE, -0.2835
-0.3010 CEREALS INTO 0.0000
-1.1303 CHARLIE </s> -0.3010
-0.8293 CHARLIE AT -0.0720
-1.1303 CHARLIE FROM -0.0435
-1.4314 CHARLIE IS -0.2823
-1.7324 CHARLIE MUST -0.2717
-1.0334 CHARLIE OUTSIDE 0.0000
-1.2553 CHARLIE TO -0.0851
-0.3010 CHARLIE, AND -0.2417
-0.3010 CHERRY BLOSSOM 0.0000
-0.5229 CHOCOLATE BAR -0.0706
-0.6990 CHOCOLATE EGG 0.0000
-0.3010 CIRCA 1969 0.0000
-0.3010 CITY WILL -0.2863
-0.3010 CLOSED. </s> -0.3010
-0.8325 CLOTH </s> -0.3010
-1.5315 CLOTH FROM -0.0435
-0.7533 CLOTH IN -0.0316
-1.0544 CLOTH THE -0.2948
-1.2304 CLOTH THERE -0.0193
-0.9031 COKE </s> -0.3010
-0.8451 COKE FROM -0.0435
-1.2711 COKE IN -0.0316
-1.4472 COKE ON -0.0164
-1.2711 COKE THERE -0.0193
-1.1461 COKE TO -0.0851
-1.7482 COKE WITH -0.2788
-0.3010 COKE, AND -0.2867
-0.3388 COME AFTER -0.0590
-1.3802 COME FROM? 0.0000
-0.3010 COMMAND IS -0.1981
-0.3010 COMPUTER BUG 0.0000
-0.6021 CONTAINERS </s> -0.3010
-1.0000 CONTAINERS IN -0.0316
-1.3010 CONTAINERS TO -0.2875
-1.0000 CONTAINERS WITH -0.2553
-0.3010 CONTAINERS, AND -0.2924
-0.3010 COOL </s> -0.3010
-0.3680 CORRIDOR </s> -0.3010
-1.1461 CORRIDOR AND -0.2728
-0.9031 CORRIDOR, FIND -0.2906
-0.6021 CORRIDOR, LOCATE -0.2674
-0.9031 CORRIDOR, LOOK 0.0000
-0.3010 COULD YOU -0.0778
-0.3332 COUNTER </s> -0.3010
-1.4472 COUNTER BUT -0.1139
-0.6021 COUNTER, FIND -0.1549
-0.6021 COUNTER, LOOK 0.0000
-0.3010 COUNTRY </s> -0.3010
-0.3641 CUPBOARD </s> -0.3010
-1.8692 CUPBOARD AND -0.2859
-1.3921 CUPBOARD BUT -0.1139
-1.8692 CUPBOARD TO -0.0851
-0.4771 CUPBOARD, LOCATE -0.1203
-0.7782 CUPBOARD, LOOK 0.0000
-1.0414 DAY IS -0.2982
-0.3882 DAY OF -0.0580
-0.3010 DEFINED FOR -0.2973
-1.7160 DELIVER CANDIES -0.2942
-1.7160 DELIVER CONTAINERS -0.2788
-1.4150 DELIVER FOOD -0.2833
-0.4372 DELIVER IT -0.2132
-1.2389 DELIVER THE -0.2950
-0.3010 DENNIS RITCHIE. 0.0000
-0.4141 DESK </s> -0.3010
-1.3802 DESK AND -0.2462
-1.6812 DESK BUT -0.1139
-1.2833 DESK TO -0.0851
-1.3424 DESK, BUT -0.2304
-1.0414 DESK, COME -0.0348
-1.0414 DESK, FOLLOW -0.2672
-1.3424 DESK, LOCATE -0.1203
-1.3424 DESK, LOOK 0.0000
-0.7404 DESK, MEET -0.2817
-0.3010 DESTINATION IS -0.2734
-0.6021 DEVELOPED AFTER -0.2890
-0.6021 DEVELOPED CIRCA 0.0000
-0.3010 DEVIATE WHEN -0.0512
-0.4007 DINING TABLE 0.0000
-0.9890 DINING TABLE, -0.0435
-0.3010 DO YOU -0.2881
-0.3010 DOES THE -0.3007
-0.3010 DOMESTIC STANDARD -0.1461
-0.3010 DOORS TO -0.2966
-0.3680 DRAWER </s> -0.3010
-1.1461 DRAWER AND -0.2635
-0.9031 DRAWER, FIND -0.1549
-0.6021 DRAWER, LOCATE -0.1203
-0.9031 DRAWER, LOOK 0.0000
-0.3010 DREAM OF -0.2906
-0.3010 DREAMS? </s> -0.3010
-0.6021 DRINKS </s> -0.3010
-1.6021 DRINKS FROM -0.0435
-0.9031 DRINKS IN -0.0316
-1.6021 DRINKS ON -0.0164
-1.6021 DRINKS THERE -0.0193
-1.3010 DRINKS WITH -0.2304
-0.3010 DRINKS, AND -0.2867
-0.3010 DSPL AND -0.2470
-1.1139 EDWARD </s> -0.3010
-0.7618 EDWARD AT -0.0720
-1.4150 EDWARD FROM -0.0435
-1.7160 EDWARD IN -0.0316
-1.4150 EDWARD IS -0.2823
-0.9379 EDWARD OUTSIDE 0.0000
-1.4150 EDWARD TO -0.0851
-0.3010 EDWARD, AND -0.2867
-0.3010 EGG </s> -0.3010
-0.3010 ELECTRIC SHEEP. 0.0000
-0.3010 ELSE IN -0.0316
-0.6021 EMPEROR IN -0.2903
-0.6021 EMPEROR OF -0.2834
-1.2041 ERIK </s> -0.3010
-0.9031 ERIK AT -0.0720
-1.2041 ERIK FROM -0.0435
-1.2041 ERIK IN -0.0316
-0.9031 ERIK OUTSIDE 0.0000
-1.2041 ERIK TO -0.0851
-0.3010 ERIK, AND -0.2810
-0.9031 ERIKA </s> -0.3010
-0.9031 ERIKA AT -0.0720
-1.1249 ERIKA FROM -0.0435
-1.3010 ERIKA IS -0.2823
-1.1249 ERIKA OUTSIDE 0.0000
-1.3010 ERIKA TO -0.0851
-0.3010 ERIKA, AND -0.2867
-1.6232 ESCORT ALEX -0.2788
-1.3222 ESCORT ERIKA -0.2430
-0.9243 ESCORT HER -0.0107
-0.6232 ESCORT HIM -0.0353
-1.6232 ESCORT JACKIE -0.2730
-1.6232 ESCORT KEN -0.2430
-1.6232 ESCORT THOMAS -0.1963
-0.3010 FAST </s> -0.3010
-0.7782 FEMALE </s> -0.3010
-0.4771 FEMALE PERSON, 0.0000
-1.1973 FIND A -0.2611
-2.1004 FIND ALEX -0.2900
-2.1004 FIND EDWARD -0.2926
-2.1004 FIND HER -0.2956
-1.4014 FIND HIM -0.2822
-2.1004 FIND JACKIE, 0.0000
-2.1004 FIND SAMANTHA -0.2910
-1.7993 FIND SOMEONE 0.0000
-1.6232 FIND SOMEONE, 0.0000
-2.1004 FIND SOPHIE -0.2825
-2.1004 FIND SOPHIE, 0.0000
-0.5441 FIND THE -0.2703
-1.7993 FIND THREE -0.1963
-0.9031 FLAKES </s> -0.3010
-0.9031 FLAKES FROM -0.0435
-0.6021 FLAKES TO -0.0851
-1.8239 FOLLOW ALEX -0.2553
-2.3010 FOLLOW BARBARA -0.2840
-1.6990 FOLLOW BRIAN -0.2083
-1.3979 FOLLOW CHARLIE -0.1919
-1.3979 FOLLOW EDWARD -0.1871
-2.0000 FOLLOW ERIK -0.2430
-1.8239 FOLLOW ERIKA -0.2672
-1.5229 FOLLOW HANNA -0.2109
-1.5229 FOLLOW HER -0.0512
-1.5229 FOLLOW HER, 0.0000
-1.3468 FOLLOW HIM -0.1322
-1.3468 FOLLOW HIM, 0.0000
-1.8239 FOLLOW IT -0.2457
-2.0000 FOLLOW JACKIE -0.2430
-1.8239 FOLLOW KEN -0.2583
-1.5229 FOLLOW MICHAEL -0.1761
-1.6021 FOLLOW SAMANTHA -0.1761
-2.3010 FOLLOW SAMUEL -0.2872
-1.3979 FOLLOW SKYLER -0.2341
-2.0000 FOLLOW SOPHIE -0.2218
-1.6021 FOLLOW THOMAS -0.1549
-0.6990 FOOD </s> -0.3010
-0.6990 FOOD IN -0.0316
-1.2218 FOOD ON -0.0164
-1.3979 FOOD TO -0.2842
-1.5241 FOR A -0.2643
-2.3692 FOR ALEX, 0.0000
-0.5563 FOR DSPL 0.0000
-2.3692 FOR ERIK -0.2730
-2.0682 FOR OPL -0.2945
-2.3692 FOR ORNAMENTAL 0.0000
-2.3692 FOR SAMUEL -0.2872
-2.0682 FOR SOMEONE 0.0000
-0.8377 FOR THE -0.2778
-2.3692 FOR THOMAS, 0.0000
-2.0682 FOR THREE -0.2156
-0.3468 FRIDGE </s> -0.3010
-1.3010 FRIDGE AND -0.2908
-0.3010 FRIDGE, LOCATE -0.1203
-2.1239 FROM A -0.2951
-2.1239 FROM BED -0.2704
-2.1239 FROM CABINET -0.2674
-2.1239 FROM DINING -0.0810
-2.1239 FROM LIVING -0.1889
-2.4249 FROM SINK -0.2750
-0.3493 FROM THE -0.1865
-1.9478 FROM TV -0.0902
-0.3010 FROM? </s> -0.3010
-0.3010 FUJI, WHICH -0.2518
-0.3010 FURNITURE </s> -0.3010
-0.3010 GENDER OF -0.0580
-0.5006 GET LOST 0.0000
-0.7347 GET THE -0.2858
-0.3010 GIRL IN -0.0316
-0.3010 GIRLS </s> -0.3010
-1.2788 GIVE IT -0.2132
-0.4037 GIVE ME -0.1629
-1.2788 GIVE THE -0.2939
-0.6021 GLASS </s> -0.3010
-0.6021 GLASS FROM -0.0435
-2.2648 GO </s> -0.3010
-0.7877 GO AFTER -0.0450
-0.4795 GO TO -0.0851
-0.3010 GOOD </s> -0.3010
-0.3010 GRASP THE -0.2808
-0.3010 GREAT </s> -0.3010
-1.0414 GUIDE CHARLIE -0.2676
-0.8653 GUIDE HER -0.0512
-1.0414 GUIDE HIM -0.2377
-1.3424 GUIDE KEN -0.2430
-1.3424 GUIDE SOPHIE -0.2430
-1.3424 GUIDE THE -0.3001
-1.3424 GUIDE THOMAS -0.1963
-0.3010 GUIDED MUST -0.1885
-1.0280 HANNA </s> -0.3010
-1.5051 HANNA AND -0.2924
-0.8062 HANNA AT -0.0720
-1.5051 HANNA MUST -0.2717
-1.2041 HANNA OUTSIDE 0.0000
-0.9031 HANNA TO -0.0851
-0.3010 HANNA, AND -0.2778
-0.3010 HASN'T BEEN 0.0000
-0.3010 HAVE DREAMS? 0.0000
-0.3010 HE WILL -0.0792
-0.7270 HEAVIEST CANDIES -0.2657
-0.6021 HEAVIEST OBJECT -0.0969
-1.2041 HEAVIEST OBJECTS -0.2518
-0.7891 HER </s> -0.3010
-1.9031 HER AT -0.0720
-1.3010 HER BACK 0.0000
-0.5607 HER TO -0.0851
-0.3010 HER, AND -0.2317
-0.3010 HIGHEST POINT 0.0000
-0.7709 HIM </s> -0.3010
-1.3729 HIM AT -0.0720
-0.8678 HIM BACK 0.0000
-0.8166 HIM TO -0.0851
-0.3010 HIM, AND -0.2271
-0.3010 HIS MAJESTY 0.0000
-0.3010 HOSTED? </s> -0.3010
-0.3010 HOW MANY 0.0000
-0.3010 HUGE </s> -0.3010
-0.3010 HUMAN SUPPORT 0.0000
-0.3010 I DREAM 0.0000
-2.1761 IN 1972 0.0000
-2.3522 IN A -0.2951
-1.6118 IN JAPAN 0.0000
-0.3351 IN THE -0.1751
-2.6532 IN WHICH -0.2852
-0.3010 INDICATED BY 0.0000
-0.3010 INTO THE -0.2990
-0.3010 INVENTED THE -0.3000
-2.4886 IS A -0.2981
-1.3746 IS AT -0.0720
-2.1875 IS BATHROOM -0.0988
-2.1875 IS BED -0.1047
-2.0114 IS BEDROOM -0.0580
-2.1875 IS CABINET -0.0838
-2.1875 IS CORRIDOR -0.0580
-0.6756 IS FOR -0.1597
-2.1875 IS IT? 0.0000
-2.4886 IS KITCHEN -0.0478
-2.1875 IS LIVING -0.1084
-2.0114 IS MOUNT 0.0000
-2.1875 IS NO -0.1249
-1.0414 IS NOT 0.0000
-2.1875 IS OFFICE -0.0478
-2.1875 IS SINK -0.0908
-1.3424 IS THE -0.2985
-2.4886 IS TODAY 0.0000
-2.4886 IS TODAY? 0.0000
-2.4886 IS TV -0.0902
-1.7896 IS USED 0.0000
-0.9218 IT </s> -0.3010
-2.1523 IT HASN'T 0.0000
-0.7209 IT ON -0.0164
-0.7373 IT TO -0.2728
-0.3010 IT? </s> -0.3010
-0.3010 ITS TREE 0.0000
-1.2041 JACKIE </s> -0.3010
-0.7270 JACKIE AT -0.0720
-1.2041 JACKIE FROM -0.0435
-0.9031 JACKIE OUTSIDE 0.0000
-1.2041 JACKIE TO -0.0851
-0.3010 JACKIE, AND -0.2892
-0.3010 JANUARY 7, 0.0000
-0.8653 JAPAN </s> -0.3010
-0.8653 JAPAN IS -0.2968
-0.6435 JAPAN SINCE 0.0000
-0.3010 JAPAN? </s> -0.3010
-0.3010 JAPANESE TERM -0.2218
-0.3010 JOKE </s> -0.3010
-1.2041 KEN </s> -0.3010
-0.9031 KEN AT -0.0720
-0.9031 KEN FROM -0.0435
-1.2041 KEN MUST -0.2717
-1.2041 KEN OUTSIDE 0.0000
-1.5051 KEN THOMPSON 0.0000
-1.5051 KEN TO -0.0851
-0.3010 KEN, AND -0.2652
-0.3547 KITCHEN </s> -0.3010
-1.6335 KITCHEN AND -0.2728
-1.9345 KITCHEN ARE -0.2924
-1.6335 KITCHEN BUST 0.0000
-0.3010 LABS </s> -0.3010
-0.3010 LANGUAGE? </s> -0.3010
-0.6990 LARGEST OBJECT -0.0969
-1.0000 LARGEST OBJECTS -0.2518
-1.0000 LARGEST SNACKS -0.2872
-1.0000 LARGEST TOILETRIES -0.2852
-1.5315 LEAD ALEX -0.2900
-1.5315 LEAD CHARLIE -0.2762
-1.5315 LEAD EDWARD -0.2840
-1.5315 LEAD ERIKA -0.2788
-0.7533 LEAD HER -0.0107
-0.8325 LEAD HIM -0.0353
-1.5315 LEAD KEN -0.2430
-1.5315 LEAD MICHAEL -0.2730
-0.3010 LEAGUE </s> -0.3010
-0.3010 LEAST 5 0.0000
-0.8239 LEFT ARM 0.0000
-0.8239 LEFT MOST 0.0000
-1.0000 LEFT OF -0.0580
-1.3010 LEFT PERSON -0.2201
-1.3010 LEFT PERSON, 0.0000
-0.3010 LEVEL </s> -0.3010
-1.0000 LIGHTEST CANDIES -0.2657
-1.0000 LIGHTEST DRINKS -0.2900
-1.0000 LIGHTEST FOOD -0.2742
-1.0000 LIGHTEST OBJECTS -0.2518
-1.0000 LIGHTEST SNACKS -0.2872
-0.3010 LITTLE OVER 0.0000
-0.3010 LIVE IN -0.0316
-0.8841 LIVING ROOM 0.0000
-1.9510 LIVING ROOM, 0.0000
-1.2820 LIVING SHELF 0.0000
-0.6428 LIVING TABLE -0.0032
-1.1059 LIVING TABLE, 0.0000
-1.2742 LOCATE A -0.2706
-1.9731 LOCATE SKYLER -0.2932
-1.9731 LOCATE SKYLER, 0.0000
-1.9731 LOCATE SOMEONE 0.0000
-1.6721 LOCATE SOMEONE, 0.0000
-0.4680 LOCATE THE -0.2800
-1.2742 LOCATE THREE -0.1326
-0.3010 LOOK FOR -0.1990
-0.3010 LOST BEFORE 0.0000
-0.3010 LYING PERSON, 0.0000
-0.3010 MAJESTY AKIHITO 0.0000
-0.3010 MALE PERSON, 0.0000
-0.3010 MAN IN -0.0316
-0.8573 MANJU </s> -0.3010
-1.0792 MANJU FROM -0.0435
-0.9542 MANJU IN -0.0316
-1.5563 MANJU THERE -0.0193
-0.8573 MANJU TO -0.0615
-0.3010 MANJU, AND -0.2711
-1.5229 MANY APPLE -0.2730
-1.3979 MANY BEER -0.2389
-1.3979 MANY BOWL -0.2499
-1.6990 MANY CLOTH -0.2747
-1.5229 MANY COKE -0.2771
-2.0000 MANY DRINKS -0.2900
-2.0000 MANY MANJU -0.2888
-1.6990 MANY MINTS -0.2858
-2.0000 MANY NOODLES -0.2808
-1.6990 MANY PAPRIKA -0.2833
-2.0000 MANY PEANUTS -0.2825
-1.0969 MANY PEOPLE 0.0000
-1.3979 MANY PRINGLES -0.2527
-2.0000 MANY SNACKS -0.2872
-1.3979 MANY SOAP -0.2341
-1.6990 MANY TEA -0.2775
-1.1549 MANY TRAY -0.1938
-0.3010 MAY FIND -0.2798
-1.2292 ME </s> -0.3010
-1.7064 ME A -0.2800
-0.8887 ME HOW 0.0000
-0.5972 ME THE -0.2672
-1.5972 ME WHAT'S 0.0000
-1.8525 ME WHICH -0.2156
-1.7597 MEET ALEX -0.2041
-1.8846 MEET ALEX, 0.0000
-1.8846 MEET BARBARA -0.1648
-1.6628 MEET BARBARA, 0.0000
-2.0607 MEET BRIAN -0.2083
-2.0607 MEET BRIAN, 0.0000
-1.5166 MEET CHARLIE -0.2314
-1.6628 MEET CHARLIE, 0.0000
-1.5166 MEET EDWARD -0.2185
-2.0607 MEET EDWARD, 0.0000
-2.0607 MEET ERIK -0.2430
-2.0607 MEET ERIK, 0.0000
-1.8846 MEET ERIKA -0.2430
-2.3617 MEET ERIKA, 0.0000
-1.7597 MEET HANNA -0.2109
-1.7597 MEET HANNA, 0.0000
-2.0607 MEET JACKIE -0.2109
-2.3617 MEET JACKIE, 0.0000
-2.0607 MEET KEN -0.2430
-1.6628 MEET KEN, 0.0000
-1.8846 MEET MICHAEL -0.2272
-1.7597 MEET MICHAEL, 0.0000
-1.8846 MEET SAMANTHA -0.2258
-1.5836 MEET SAMANTHA, 0.0000
-1.7597 MEET SAMUEL -0.2109
-2.0607 MEET SAMUEL, 0.0000
-1.4075 MEET SKYLER -0.2061
-1.8846 MEET SKYLER, 0.0000
-1.6628 MEET SOPHIE -0.1996
-1.6628 MEET THE -0.3000
-2.0607 MEET THOMAS -0.2341
-1.8846 MEET THOMAS, 0.0000
-0.5441 MELON </s> -0.3010
-0.6690 MELON FROM -0.0435
-1.0280 MICHAEL </s> -0.3010
-0.8062 MICHAEL AT -0.0720
-1.2041 MICHAEL FROM -0.0435
-1.5051 MICHAEL IS -0.2823
-1.0280 MICHAEL OUTSIDE 0.0000
-1.2041 MICHAEL TO -0.0851
-0.3010 MICHAEL, AND -0.2592
-0.3010 MILLION </s> -0.3010
-0.8603 MINTS </s> -0.3010
-0.6495 MINTS FROM -0.0435
-1.2863 MINTS IN -0.0316
-1.7634 MINTS ON -0.0164
-1.4624 MINTS THERE -0.0193
-1.4624 MINTS TO -0.0851
-0.3010 MINTS, AND -0.2753
-0.6021 MONTH </s> -0.3010
-0.6021 MONTH TO -0.0798
-0.3010 MOST OBJECT -0.1996
-0.3010 MOTH TRAPPED 0.0000
-0.3010 MOUNT FUJI, 0.0000
-0.3010 MOVABLE OBJECT -0.2825
-0.6021 MUG </s> -0.3010
-0.6021 MUG FROM -0.0435
-1.1856 MUST BE -0.1362
-0.6416 MUST DEVIATE 0.0000
-0.6850 MUST FOLLOW -0.1399
-0.3010 NAH </s> -0.3010
-1.8451 NAME </s> -0.3010
-0.3136 NAME OF -0.0519
-0.3010 NAVIGATE TO -0.0851
-0.3010 NEXT YEAR'S 0.0000
-0.7782 NO </s> -0.3010
-0.4771 NO STANDARD -0.2041
-0.3010 NONE </s> -0.3010
-0.8653 NOODLES </s> -0.3010
-0.7404 NOODLES FROM -0.0435
-1.3424 NOODLES IN -0.0316
-1.3424 NOODLES THERE -0.0193
-1.0414 NOODLES TO -0.0851
-0.3010 NOODLES, AND -0.2851
-0.3010 NOT AT -0.0720
-1.6812 OBJECT ABOVE -0.2430
-1.3802 OBJECT AT -0.0720
-1.6812 OBJECT BEHIND 0.0000
-0.6812 OBJECT FROM -0.0435
-0.7782 OBJECT ON 0.0000
-1.3802 OBJECT OR 0.0000
-0.4058 OBJECTS IN -0.0316
-0.9700 OBJECTS ON -0.0164
-1.6232 OF ELECTRIC 0.0000
-1.4014 OF JAPAN? 0.0000
-0.3680 OF THE -0.2786
-2.1004 OF YOUR -0.2688
-0.3547 OFFICE </s> -0.3010
-1.6335 OFFICE AND -0.2753
-1.9345 OFFICE ARE -0.2968
-1.6335 OFFICE BUST 0.0000
-0.7782 OFFICE, FIND -0.2870
-1.0792 OFFICE, LOCATE -0.2773
-0.6021 OFFICE, LOOK 0.0000
-0.3181 ON THE -0.2159
-1.7160 ON TOP 0.0000
-1.2160 ONLY 3 0.0000
-0.3573 ONLY </s> -0.3010
-0.3010 OPEN PLATFORM 0.0000
-1.8261 OPL </s> -0.3010
-0.3142 OPL ONLY -0.0498
-0.3010 OR FURNITURE 0.0000
-0.3010 ORNAMENTAL CHERRY 0.0000
-0.3010 OUTSIDE THE -0.2954
-0.3010 OVER 80 0.0000
-0.8539 PAPRIKA </s> -0.3010
-0.8539 PAPRIKA FROM -0.0435
-1.2218 PAPRIKA IN -0.0316
-1.3979 PAPRIKA ON -0.0164
-1.3979 PAPRIKA THERE -0.0193
-1.0969 PAPRIKA TO -0.0626
-0.3010 PAPRIKA, AND -0.2635
-1.0792 PEANUTS </s> -0.3010
-0.9031 PEANUTS FROM -0.0435
-0.9031 PEANUTS IN -0.0316
-1.3802 PEANUTS THERE -0.0193
-0.9031 PEANUTS TO -0.0626
-0.3010 PEANUTS, AND -0.2745
-0.6021 PEOPLE IN -0.0316
-0.6021 PEOPLE LIVE 0.0000
-0.3010 PEPPER </s> -0.3010
-0.9454 PERSON AT -0.0720
-0.6646 PERSON BEING 0.0000
-0.7693 PERSON IN -0.0316
-0.3010 PERSON, AND -0.2753
-0.3010 PICK UP 0.0000
-0.5868 PLACE AT -0.2673
-0.9031 PLACE IT -0.2094
-1.0950 PLACE ONLY -0.2738
-1.4472 PLACE THE -0.2932
-0.3010 PLATFORM LEAGUE 0.0000
-2.0492 PLEASE </s> -0.3010
-2.0492 PLEASE ACCOMPANY -0.2817
-1.3502 PLEASE BRING -0.1015
-2.0492 PLEASE DELIVER -0.2840
-2.0492 PLEASE FOLLOW -0.2878
-1.5721 PLEASE GIVE -0.0830
-1.5721 PLEASE GO -0.1261
-1.5721 PLEASE GRASP 0.0000
-1.5721 PLEASE GUIDE -0.2139
-2.0492 PLEASE LOCATE -0.2773
-2.0492 PLEASE LOOK 0.0000
-0.8451 PLEASE MEET -0.2018
-2.0492 PLEASE NAVIGATE 0.0000
-1.5721 PLEASE POUR 0.0000
-2.0492 PLEASE PUT -0.2093
-1.3502 PLEASE TAKE -0.1445
-1.2041 PLEASE TELL -0.0537
-0.3010 POINT IN -0.2903
-0.4771 POINTING LEFT -0.2553
-0.7782 POINTING RIGHT -0.2553
-0.3010 POSE OF -0.0580
-0.3010 POUR SOME 0.0000
-0.8808 PRINGLES </s> -0.3010
-0.9777 PRINGLES FROM -0.0435
-0.9777 PRINGLES IN -0.0316
-0.9777 PRINGLES THERE -0.0193
-1.2788 PRINGLES TO -0.0798
-0.3010 PRINGLES, AND -0.2635
-0.3010 PROGRAMMING LANGUAGE? 0.0000
-0.5093 PUT IT -0.2094
-0.7202 PUT THE -0.2887
-1.1761 Q: DO 0.0000
-1.1761 Q: HOW 0.0000
-0.7782 Q: WHAT -0.0969
-1.4771 Q: WHAT'S 0.0000
-1.4771 Q: WHEN -0.2730
-1.4771 Q: WHERE 0.0000
-1.0000 Q: WHICH -0.2156
-0.3680 QUESTION </s> -0.3010
-1.1461 QUESTION TO -0.0734
-0.3010 QUICK </s> -0.3010
-0.3010 REACHES 3776M 0.0000
-0.9542 REACHING IT -0.2457
-0.4102 REACHING THE -0.2346
-0.3010 REFEREE BEFORE 0.0000
-0.3010 RELAY </s> -0.3010
-0.3010 REMARKS </s> -0.3010
-1.2041 REPLACE BEER -0.2863
-1.2041 REPLACE CANDIES -0.2942
-1.2041 REPLACE COKE -0.2932
-0.9031 REPLACE CONTAINERS -0.2553
-0.9031 REPLACE DRINKS -0.2788
-1.2041 REPLACE SENBEI -0.2430
-0.6990 RIGHT ARM 0.0000
-0.6990 RIGHT MOST 0.0000
-1.0000 RIGHT PERSON -0.2201
-0.5229 RISING LEFT -0.2304
-0.6990 RISING RIGHT -0.2041
-0.3010 RITCHIE. </s> -0.3010
-0.3010 ROBOCUP BE -0.2894
-1.7782 ROBOT </s> -0.3010
-1.3802 ROBOT IS -0.2939
-0.4994 ROBOT MUST -0.2006
-0.9031 ROBOT PLEASE -0.1439
-0.3010 ROBOTICS PEPPER 0.0000
-0.3660 ROOM </s> -0.3010
-1.4594 ROOM AND -0.2753
-1.8573 ROOM ARE -0.2881
-2.1584 ROOM BUST 0.0000
-1.8573 ROOM TO -0.0851
-0.4771 ROOM, FIND -0.2870
-0.7782 ROOM, LOOK 0.0000
-0.6021 SAKURA </s> -0.3010
-0.6021 SAKURA IS -0.2808
-0.3010 SAMA IS -0.2808
-0.7984 SAMANTHA </s> -0.3010
-1.6435 SAMANTHA AND -0.2971
-0.8653 SAMANTHA AT -0.0720
-1.6435 SAMANTHA FROM -0.0435
-1.6435 SAMANTHA IN -0.0316
-1.3424 SAMANTHA IS -0.2823
-1.6435 SAMANTHA MUST -0.2717
-1.6435 SAMANTHA OUTSIDE 0.0000
-1.3424 SAMANTHA TO -0.0851
-0.3010 SAMANTHA, AND -0.2354
-0.3010 SAME ROOM -0.0565
-0.8062 SAMUEL </s> -0.3010
-1.2041 SAMUEL AND -0.2802
-0.9031 SAMUEL AT -0.0720
-1.5051 SAMUEL FROM -0.0435
-1.5051 SAMUEL IN -0.0316
-1.2041 SAMUEL MUST -0.2717
-1.5051 SAMUEL OUTSIDE 0.0000
-0.3010 SAMUEL, AND -0.2736
-1.3802 SAY A -0.2981
-1.0792 SAY SOMETHING 0.0000
-0.5351 SAY THE -0.2990
-1.0792 SAY YOUR -0.0580
-0.3010 SEA LEVEL 0.0000
-0.9031 SENBEI </s> -0.3010
-0.6021 SENBEI FROM -0.0435
-0.9031 SENBEI WITH -0.2788
-0.3010 SHEEP. </s> -0.3010
-0.4058 SHELF </s> -0.3010
-1.1461 SHELF AND -0.2794
-1.4472 SHELF BUT -0.1139
-0.3590 SIDESHELF </s> -0.3010
-1.5051 SIDESHELF AND -0.2859
-1.5051 SIDESHELF BUT -0.1139
-0.3010 SIDESHELF, LOCATE -0.1203
-0.3010 SINCE JANUARY 0.0000
-0.4160 SINK </s> -0.3010
-1.4574 SINK AND -0.2720
-1.6335 SINK BUT -0.1139
-1.2355 SINK TO -0.0840
-1.0212 SINK, BUT -0.2304
-1.3222 SINK, COME -0.0348
-1.1461 SINK, FOLLOW -0.2672
-1.6232 SINK, LOCATE -0.1203
-0.6690 SINK, MEET -0.2489
-1.3222 SINK, YOU -0.2924
-0.3010 SITTING PERSON -0.2201
-0.3010 SIZE </s> -0.3010
-1.0492 SKYLER </s> -0.3010
-1.7482 SKYLER AND -0.2892
-0.7482 SKYLER AT -0.0720
-1.7482 SKYLER FROM -0.0435
-1.7482 SKYLER IN -0.0316
-1.4472 SKYLER MUST -0.2717
-1.0492 SKYLER OUTSIDE 0.0000
-1.2711 SKYLER TO -0.0851
-0.3010 SKYLER, AND -0.2592
-0.3010 SMALL </s> -0.3010
-0.8062 SNACKS </s> -0.3010
-1.5051 SNACKS FROM -0.0435
-0.6021 SNACKS IN -0.0316
-1.5051 SNACKS ON -0.0164
-1.5051 SNACKS THERE -0.0193
-1.4472 SOAP </s> -0.3010
-0.7482 SOAP FROM -0.0435
-1.4472 SOAP IN -0.0316
-1.4472 SOAP ON -0.0164
-0.8451 SOAP THERE -0.0193
-1.1461 SOAP TO -0.0851
-0.3010 SOAP, AND -0.2745
-0.3010 SOCIAL STANDARD -0.1461
-0.3010 SOFTBANK ROBOTICS 0.0000
-0.3010 SOME CEREALS 0.0000
-0.3010 SOMEONE IN -0.0316
-0.3010 SOMEONE, AND -0.2728
-0.3010 SOMETHING ABOUT 0.0000
-0.3010 SOMEWHERE ELSE 0.0000
-1.3802 SOPHIE </s> -0.3010
-1.3802 SOPHIE AND -0.2892
-0.7782 SOPHIE AT -0.0720
-0.9031 SOPHIE FROM -0.0435
-1.3802 SOPHIE IN -0.0316
-1.3802 SOPHIE MUST -0.2717
-1.3802 SOPHIE OUTSIDE 0.0000
-0.3010 SOPHIE, AND -0.2810
-0.3010 SPONGE </s> -0.3010
-0.4559 STAND </s> -0.3010
-1.3802 STAND AND -0.2506
-1.7782 STAND BUT -0.1139
-2.0792 STAND THE -0.2985
-1.0792 STAND TO -0.0777
-1.5563 STAND, BUT -0.2304
-1.2553 STAND, FOLLOW -0.2810
-0.9542 STAND, GO -0.2237
-1.5563 STAND, LOOK 0.0000
-0.6021 STAND, MEET -0.2403
-1.5563 STAND, YOU -0.2924
-0.6990 STANDARD DEFINED 0.0000
-0.5229 STANDARD PLATFORM 0.0000
-0.4771 STANDING </s> -0.3010
-0.7782 STANDING PERSON -0.2201
-0.3010 START </s> -0.3010
-0.3010 STAY </s> -0.3010
-0.3010 STOP </s> -0.3010
-0.3010 SUPPORT ROBOT -0.2937
-0.6990 SUSHI </s> -0.3010
-1.0000 SUSHI FROM -0.0435
-0.6990 SUSHI TO -0.0851
-0.4523 TABLE </s> -0.3010
-1.3206 TABLE AND -0.2130
-1.3554 TABLE BUT -0.1139
-2.4346 TABLE THE -0.2985
-1.2884 TABLE TO -0.0777
-1.4037 TABLE, BUT -0.2304
-1.1818 TABLE, COME -0.0348
-1.8808 TABLE, FIND -0.1549
-1.2788 TABLE, FOLLOW -0.2672
-1.2788 TABLE, GO -0.2237
-1.4037 TABLE, LOCATE -0.1203
-0.6767 TABLE, MEET -0.2135
-1.5798 TABLE, YOU -0.2924
-1.8808 TAKE BARBARA -0.2840
-1.8808 TAKE BRIAN -0.2840
-1.8808 TAKE ERIKA -0.2672
-1.2788 TAKE HER -0.0107
-0.9777 TAKE HIM -0.0353
-1.8808 TAKE JACKIE -0.2730
-1.8808 TAKE KEN -0.2430
-0.5586 TAKE THE -0.2760
-0.3010 TAKEN FROM -0.2810
-1.2788 TEA </s> -0.3010
-0.7347 TEA FROM -0.0435
-0.8016 TEA IN -0.0316
-1.2788 TEA ON -0.0164
-1.2788 TEA THERE -0.0193
-0.6021 TEAM'S AFFILIATION 0.0000
-0.7782 TEAM'S COUNTRY 0.0000
-1.0792 TEAM'S NAME -0.2948
-0.3010 TEAM? </s> -0.3010
-0.3623 TELL ME -0.0634
-1.8808 TELL SOMETHING 0.0000
-1.5128 TELL THE -0.2990
-2.3579 TELL WHAT -0.2430
-1.7559 TELL YOUR -0.0580
-0.4771 TERM COMPUTER 0.0000
-0.7782 TERM FOR -0.2992
-0.3010 THANK YOU -0.2968
-0.3010 THANKS </s> -0.3010
-2.3252 THE APPLE -0.0512
-3.1703 THE APPLE, 0.0000
-1.8915 THE ARENA 0.0000
-2.9942 THE B -0.2218
-2.0399 THE BAR -0.0248
-1.8480 THE BATHROOM 0.0000
-1.9031 THE BED 0.0000
-2.3252 THE BED, -0.0706
-2.1289 THE BEDROOM -0.0152
-2.8692 THE BEDROOM, 0.0000
-2.2160 THE BEDSIDE -0.0202
-2.9942 THE BEDSIDE, 0.0000
-2.6262 THE BEER -0.1249
-2.9942 THE BEER, 0.0000
-2.9942 THE BIGGEST -0.0969
-2.5170 THE BOOKCASE 0.0000
-2.3252 THE BOWL -0.0872
-2.8692 THE C -0.1549
-1.8915 THE CABINET 0.0000
-2.2952 THE CABINET, 0.0000
-2.4299 THE CANDIES -0.1669
-2.3921 THE CENTER 0.0000
-3.1703 THE CHOCOLATE 0.0000
-2.3921 THE CLOTH -0.0483
-2.2160 THE COKE -0.0580
-3.4713 THE COKE, 0.0000
-3.4713 THE CONTAINERS -0.2553
-3.1703 THE CONTAINERS, 0.0000
-1.9661 THE CORRIDOR 0.0000
-2.8692 THE CORRIDOR, 0.0000
-2.3921 THE COUNTER 0.0000
-3.1703 THE COUNTER, 0.0000
-1.9528 THE CUPBOARD 0.0000
-2.9942 THE CUPBOARD, 0.0000
-2.5170 THE DAY -0.0726
-1.8085 THE DESK 0.0000
-2.4713 THE DESK, -0.0378
-1.6388 THE DINING 0.0000
-3.1703 THE DOMESTIC 0.0000
-2.2160 THE DRAWER 0.0000
-2.8692 THE DRAWER, 0.0000
-2.6931 THE DRINKS -0.2304
-3.4713 THE DRINKS, 0.0000
-2.4713 THE EMPEROR 0.0000
-2.9942 THE FLAKES -0.0969
-2.4713 THE FOOD -0.2041
-2.5682 THE FRIDGE 0.0000
-3.1703 THE FRIDGE, 0.0000
-2.9942 THE GENDER 0.0000
-3.4713 THE GLASS -0.1761
-2.6262 THE HEAVIEST -0.0512
-2.6931 THE HIGHEST 0.0000
-2.8692 THE JAPAN? 0.0000
-3.4713 THE JAPANESE 0.0000
-1.8915 THE KITCHEN -0.0197
-2.8692 THE LARGEST -0.0792
-2.7723 THE LEFT -0.1761
-2.9942 THE LIGHTEST -0.1461
-1.3779 THE LIVING 0.0000
-2.3573 THE MANJU -0.0235
-2.8692 THE MANJU, 0.0000
-2.7723 THE MELON 0.0000
-2.1491 THE MINTS -0.0290
-2.8692 THE MINTS, 0.0000
-2.6931 THE MONTH 0.0000
-3.4713 THE MUG -0.1761
-1.9398 THE NAME -0.0122
-2.6262 THE NOODLES -0.1347
-2.9942 THE NOODLES, 0.0000
-2.5682 THE OBJECT -0.1761
-1.8802 THE OFFICE -0.0197
-2.6931 THE OFFICE, 0.0000
-3.1703 THE OPEN 0.0000
-2.2160 THE PAPRIKA -0.0334
-2.9942 THE PAPRIKA, 0.0000
-2.4713 THE PEANUTS -0.0348
-2.9942 THE PEANUTS, 0.0000
-1.5628 THE PERSON 0.0000
-3.1703 THE POINTING 0.0000
-2.9942 THE POSE 0.0000
-2.4713 THE PRINGLES -0.1684
-2.9942 THE PRINGLES, 0.0000
-1.8480 THE REFEREE 0.0000
-3.1703 THE RIGHT -0.2041
-2.8692 THE RISING 0.0000
-1.8915 THE ROBOT -0.1357
-2.5170 THE ROOM -0.0565
-2.0241 THE SAME 0.0000
-3.1703 THE SENBEI -0.1761
-2.2952 THE SIDESHELF 0.0000
-3.4713 THE SIDESHELF, 0.0000
-1.8915 THE SINK 0.0000
-2.2408 THE SINK, -0.0757
-2.7723 THE SNACKS -0.1761
-2.5170 THE SOAP -0.1326
-3.1703 THE SOAP, 0.0000
-3.4713 THE SOCIAL 0.0000
-3.4713 THE SOFTBANK 0.0000
-2.6931 THE SUSHI -0.1461
-2.2408 THE TEA -0.0435
-3.1703 THE TERM -0.1249
-2.9942 THE THINNEST 0.0000
-2.7723 THE THREE -0.2156
-2.7723 THE TIME -0.1091
-2.9942 THE TOILETRIES -0.1963
-3.1703 THE TOYOTA 0.0000
-2.5170 THE TRAY -0.1576
-1.6324 THE TV 0.0000
-3.4713 THE WAVING 0.0000
-2.9942 THE WEEK 0.0000
-0.3212 THERE ARE -0.0706
-1.6435 THERE IS -0.2982
-0.7782 THINNEST CANDIES -0.2942
-0.7782 THINNEST FOOD -0.2742
-0.7782 THINNEST OBJECT -0.1996
-0.3010 THIS COMMAND 0.0000
-1.1461 THOMAS </s> -0.3010
-0.8451 THOMAS AT -0.0720
-1.4472 THOMAS FROM -0.0435
-1.4472 THOMAS IS -0.2823
-0.6690 THOMAS TO -0.0851
-0.3010 THOMAS, AND -0.2435
-0.3010 THOMPSON AND -0.3002
-1.4472 THREE BIGGEST -0.2430
-1.1461 THREE CANDIES -0.2109
-1.4472 THREE CONTAINERS -0.2553
-1.4472 THREE HEAVIEST -0.2730
-1.4472 THREE LARGEST -0.2553
-1.1461 THREE LIGHTEST -0.2041
-0.9700 THREE SNACKS -0.1761
-0.9700 THREE TOILETRIES -0.1963
-0.3010 TIAGO </s> -0.3010
-1.1461 TIME </s> -0.3010
-0.8451 TIME IS -0.2982
-0.5441 TIME TO -0.0766
-2.1361 TO ALEX -0.1614
-2.8351 TO BAR -0.2946
-2.2330 TO BARBARA -0.1648
-2.3579 TO BED, -0.2609
-2.8351 TO BEDROOM -0.2932
-2.8351 TO BEDSIDE -0.2906
-2.3579 TO BRIAN -0.2083
-2.8351 TO CHARLIE -0.2314
-2.8351 TO DESK, -0.2808
-2.5340 TO DINING -0.2540
-2.5340 TO EDWARD -0.2185
-2.5340 TO ERIKA -0.2430
-2.5340 TO HANNA -0.2272
-2.8351 TO JACKIE -0.2109
-2.5340 TO KEN -0.2430
-2.5340 TO KITCHEN -0.2908
-2.5340 TO LIVING -0.1992
-1.5128 TO ME -0.2746
-2.5340 TO MICHAEL -0.2272
-2.5340 TO OFFICE -0.2908
-2.2330 TO SAMANTHA -0.2374
-2.8351 TO SAMUEL -0.2430
-2.2330 TO SINK, -0.2576
-2.5340 TO SKYLER -0.2156
-0.4069 TO THE -0.1567
-2.5340 TO THOMAS -0.2341
-2.8351 TO TV -0.2478
-0.3010 TODAY </s> -0.3010
-0.3010 TODAY? </s> -0.3010
-0.6021 TOILETRIES </s> -0.3010
-1.4472 TOILETRIES FROM -0.0435
-0.6690 TOILETRIES IN -0.0316
-0.3010 TOP OF -0.0580
-0.3010 TOYOTA HUMAN 0.0000
-0.3010 TRAPPED IN -0.2991
-1.2041 TRAY IN -0.0316
-0.6601 TRAY THE -0.2947
-0.6601 TRAY THERE -0.0193
-0.3010 TREE </s> -0.3010
-0.4150 TV STAND 0.0000
-0.9379 TV STAND, 0.0000
-0.3010 UP THE -0.2806
-0.3010 USED IN -0.0316
-0.6021 WAS DEVELOPED 0.0000
-0.6021 WAS INVENTED 0.0000
-0.3010 WAVING PERSON -0.2201
-0.4771 WEEK </s> -0.3010
-0.7782 WEEK TO -0.2985
-0.9031 WHAT DAY -0.2596
-0.6021 WHAT IS -0.2793
-0.9031 WHAT TIME -0.2341
-0.3010 WHAT'S THE -0.2930
-0.3590 WHEN INDICATED 0.0000
-1.2041 WHEN WAS -0.1761
-0.3010 WHERE DOES 0.0000
-0.7482 WHICH ARE -0.2792
-1.4472 WHICH CITY 0.0000
-0.9700 WHICH REACHES 0.0000
-0.7482 WHICH ROBOT -0.2825
-1.0792 WHO INVENTED 0.0000
-0.3802 WHO IS -0.2808
-1.1761 WILL FIND -0.2834
-0.3979 WILL GET -0.1362
-1.4771 WILL NEXT 0.0000
-1.0000 WITH A -0.2951
-1.3010 WITH ERIKA -0.2430
-1.0000 WITH HANNA -0.2583
-1.3010 WITH JACKIE -0.2730
-1.3010 WITH SAMANTHA -0.2258
-1.0000 WITH SAMUEL -0.2272
-1.3010 WITH SKYLER -0.2604
-0.3010 WOMAN, AND -0.2728
-0.3010 YEAH </s> -0.3010
-0.3010 YEAR'S ROBOCUP 0.0000
-0.3010 YES </s> -0.3010
-0.3010 YET. </s> -0.3010
-2.0086 YOU </s> -0.3010
-1.7076 YOU ACCOMPANY -0.2717
-1.5315 YOU BRING -0.1015
-1.7076 YOU CAN 0.0000
-2.0086 YOU DELIVER -0.2926
-2.0086 YOU FIND -0.1549
-2.0086 YOU FOLLOW -0.2900
-1.7076 YOU GIVE -0.0830
-1.5315 YOU HAVE 0.0000
-2.0086 YOU LOOK 0.0000
-1.7076 YOU MAY 0.0000
-1.4065 YOU MEET -0.2817
-1.7076 YOU NAVIGATE 0.0000
-0.6469 YOU PLEASE -0.0512
-2.0086 YOU POUR 0.0000
-1.7076 YOU WILL -0.2711
-0.3680 YOUR TEAM'S 0.0000
-1.1461 YOUR TEAM? 0.0000
-0.3979 YOURSELF </s> -0.3010
-1.0000 YOURSELF TO -0.2998
-0.3010 ﻿MEET SAMUEL -0.2430
-0.3010 ﻿TIAGO </s> -0.3010

\3-grams:
-0.3010 1969 AT BELL
-0.3010 1972 AT BELL
-0.3010 3 OBJECTS IN
-0.3010 3776M ABOVE SEA
-0.3832 5 OBJECTS IN
-1.0645 5 OBJECTS ON
-0.3010 7, 1989 </s>
-0.3010 80 MILLION </s>
-0.3010 <s> A LITTLE
-1.1761 <s> A: ...
-1.1761 <s> A: A
-1.4771 <s> A: C
-1.4771 <s> A: FROM
-1.1761 <s> A: I
-1.4771 <s> A: SAKURA
-0.7782 <s> A: THE
-1.4771 <s> A: THERE
-1.0792 <s> ACCOMPANY BRIAN
-1.0792 <s> ACCOMPANY CHARLIE
-1.0792 <s> ACCOMPANY EDWARD
-1.0792 <s> ACCOMPANY ERIK
-1.0792 <s> ACCOMPANY ERIKA
-1.0792 <s> ACCOMPANY SAMUEL
-0.5229 <s> ALEX </s>
-1.0000 <s> ALEX IS
-1.0000 <s> ALEX MUST
-0.3010 <s> ALL ACCESS
-0.3010 <s> AMAZING </s>
-0.3010 <s> ANSWER A
-0.3010 <s> APPLE </s>
-0.3010 <s> B WAS
-0.3010 <s> BAD </s>
-0.3010 <s> BAR </s>
-0.6021 <s> BARBARA </s>
-0.9031 <s> BARBARA IS
-0.9031 <s> BARBARA MUST
-0.3010 <s> BATHROOM </s>
-0.3010 <s> BED </s>
-0.3010 <s> BEDROOM </s>
-0.3010 <s> BEDSIDE </s>
-0.3010 <s> BEER </s>
-0.3010 <s> BIG </s>
-0.3010 <s> BLOCK ACCESS
-0.3010 <s> BOOKCASE </s>
-0.6021 <s> BRIAN </s>
-0.6021 <s> BRIAN IS
-0.4314 <s> BRING ME
-1.1303 <s> BRING THE
-1.2553 <s> BRING TO
-0.3010 <s> C WAS
-0.3010 <s> CABINET </s>
-0.3010 <s> CANDIES </s>
-0.3010 <s> CENTER TABLE
-0.6021 <s> CHARLIE </s>
-0.7782 <s> CHARLIE IS
-1.0792 <s> CHARLIE MUST
-0.4771 <s> CHOCOLATE BAR
-0.7782 <s> CHOCOLATE EGG
-0.3010 <s> CLOTH </s>
-0.3010 <s> COKE </s>
-0.3010 <s> COME AFTER
-0.3010 <s> CONTAINERS </s>
-0.3010 <s> COOL </s>
-0.3010 <s> CORRIDOR </s>
-0.3010 <s> COULD YOU
-0.3010 <s> COUNTER </s>
-0.3010 <s> CUPBOARD </s>
-1.0000 <s> DELIVER CANDIES
-1.0000 <s> DELIVER FOOD
-0.5229 <s> DELIVER THE
-0.3010 <s> DESK </s>
-0.3010 <s> DESTINATION IS
-0.3010 <s> DINING TABLE
-0.3010 <s> DO YOU
-0.3010 <s> DRAWER </s>
-0.3010 <s> DRINKS </s>
-0.6021 <s> EDWARD </s>
-0.6021 <s> EDWARD IS
-0.3010 <s> ERIK </s>
-0.4771 <s> ERIKA </s>
-0.7782 <s> ERIKA IS
-1.0792 <s> ESCORT ALEX
-0.7782 <s> ESCORT ERIKA
-1.0792 <s> ESCORT JACKIE
-1.0792 <s> ESCORT KEN
-1.0792 <s> ESCORT THOMAS
-0.3010 <s> FAST </s>
-1.1663 <s> FIND A
-1.9445 <s> FIND ALEX
-1.9445 <s> FIND EDWARD
-1.9445 <s> FIND SAMANTHA
-1.6435 <s> FIND SOMEONE
-1.9445 <s> FIND SOPHIE
-0.4674 <s> FIND THE
-1.6435 <s> FIND THREE
-0.3010 <s> FLAKES </s>
-1.7324 <s> FOLLOW ALEX
-1.4314 <s> FOLLOW BRIAN
-1.2553 <s> FOLLOW CHARLIE
-1.4314 <s> FOLLOW EDWARD
-1.1303 <s> FOLLOW HANNA
-1.7324 <s> FOLLOW KEN
-1.4314 <s> FOLLOW MICHAEL
-1.1303 <s> FOLLOW SAMANTHA
-1.2553 <s> FOLLOW SKYLER
-1.7324 <s> FOLLOW SOPHIE
-1.1303 <s> FOLLOW THOMAS
-0.3010 <s> FOOD </s>
-0.3010 <s> FRIDGE </s>
-0.3010 <s> FROM A
-0.3010 <s> GET THE
-0.3655 <s> GIVE ME
-1.1614 <s> GIVE THE
-0.3010 <s> GLASS </s>
-2.0569 <s> GO </s>
-1.3579 <s> GO AFTER
-0.3493 <s> GO TO
-0.3010 <s> GOOD </s>
-0.3010 <s> GRASP THE
-0.3010 <s> GREAT </s>
-0.7782 <s> GUIDE CHARLIE
-0.7782 <s> GUIDE SOPHIE
-0.7782 <s> GUIDE THOMAS
-0.6021 <s> HANNA </s>
-0.6021 <s> HANNA MUST
-0.3010 <s> HIS MAJESTY
-0.3010 <s> HOW MANY
-0.3010 <s> HUGE </s>
-0.3010 <s> I DREAM
-0.3010 <s> IN WHICH
-0.3010 <s> IS NOT
-0.3010 <s> IT HASN'T
-0.6990 <s> KEN </s>
-0.6990 <s> KEN MUST
-1.0000 <s> KEN THOMPSON
-0.3010 <s> KITCHEN </s>
-1.0792 <s> LEAD ALEX
-1.0792 <s> LEAD CHARLIE
-1.0792 <s> LEAD EDWARD
-1.0792 <s> LEAD ERIKA
-1.0792 <s> LEAD KEN
-1.0792 <s> LEAD MICHAEL
-0.9031 <s> LIVING ROOM
-0.9031 <s> LIVING SHELF
-0.6021 <s> LIVING TABLE
-1.2389 <s> LOCATE A
-1.7160 <s> LOCATE SKYLER
-1.7160 <s> LOCATE SOMEONE
-0.4856 <s> LOCATE THE
-1.1139 <s> LOCATE THREE
-0.3010 <s> LOOK FOR
-0.3010 <s> MANJU </s>
-1.4472 <s> MEET ALEX
-1.6232 <s> MEET BARBARA
-1.9243 <s> MEET BRIAN
-1.2253 <s> MEET CHARLIE
-1.3222 <s> MEET EDWARD
-1.9243 <s> MEET ERIK
-1.6232 <s> MEET ERIKA
-1.6232 <s> MEET HANNA
-1.9243 <s> MEET JACKIE
-1.9243 <s> MEET KEN
-1.6232 <s> MEET MICHAEL
-1.4472 <s> MEET SAMANTHA
-1.6232 <s> MEET SAMUEL
-1.0792 <s> MEET SKYLER
-1.3222 <s> MEET SOPHIE
-1.6232 <s> MEET THOMAS
-0.3010 <s> MELON </s>
-0.4771 <s> MICHAEL </s>
-0.7782 <s> MICHAEL IS
-0.3010 <s> MINTS </s>
-0.3010 <s> MUG </s>
-0.3010 <s> NAH </s>
-0.3010 <s> NAVIGATE TO
-0.3010 <s> NO </s>
-0.3010 <s> NONE </s>
-0.3010 <s> NOODLES </s>
-0.3010 <s> PAPRIKA </s>
-0.3010 <s> PEANUTS </s>
-0.3010 <s> PICK UP
-0.4619 <s> PLACE AT
-0.9700 <s> PLACE ONLY
-1.3222 <s> PLACE THE
-1.5563 <s> PLEASE </s>
-1.5563 <s> PLEASE ACCOMPANY
-1.5563 <s> PLEASE BRING
-1.2553 <s> PLEASE GIVE
-1.2553 <s> PLEASE GO
-1.5563 <s> PLEASE GRASP
-1.5563 <s> PLEASE MEET
-1.5563 <s> PLEASE POUR
-1.0792 <s> PLEASE TAKE
-0.8573 <s> PLEASE TELL
-0.3010 <s> POUR SOME
-0.3010 <s> PRINGLES </s>
-0.3010 <s> PUT THE
-1.1761 <s> Q: DO
-1.1761 <s> Q: HOW
-0.7782 <s> Q: WHAT
-1.4771 <s> Q: WHAT'S
-1.4771 <s> Q: WHEN
-1.4771 <s> Q: WHERE
-1.0000 <s> Q: WHICH
-0.3010 <s> QUESTION </s>
-0.3010 <s> QUICK </s>
-0.3010 <s> REMARKS </s>
-1.2041 <s> REPLACE BEER
-1.2041 <s> REPLACE CANDIES
-1.2041 <s> REPLACE COKE
-0.9031 <s> REPLACE CONTAINERS
-0.9031 <s> REPLACE DRINKS
-1.2041 <s> REPLACE SENBEI
-0.3010 <s> ROBOT PLEASE
-0.5441 <s> SAMANTHA </s>
-0.8451 <s> SAMANTHA IS
-1.1461 <s> SAMANTHA MUST
-0.5229 <s> SAMUEL </s>
-0.6990 <s> SAMUEL MUST
-0.3010 <s> SAY THE
-0.3010 <s> SENBEI </s>
-0.3010 <s> SIDESHELF </s>
-0.3010 <s> SINK </s>
-0.3010 <s> SIZE </s>
-0.4771 <s> SKYLER </s>
-0.7782 <s> SKYLER MUST
-0.3010 <s> SMALL </s>
-0.3010 <s> SNACKS </s>
-0.3010 <s> SOAP </s>
-0.6021 <s> SOPHIE </s>
-0.6021 <s> SOPHIE MUST
-0.3010 <s> SPONGE </s>
-0.3010 <s> START </s>
-0.3010 <s> STAY </s>
-0.3010 <s> STOP </s>
-0.3010 <s> SUSHI </s>
-1.6232 <s> TAKE BRIAN
-1.6232 <s> TAKE ERIKA
-1.6232 <s> TAKE JACKIE
-0.3680 <s> TAKE THE
-0.3240 <s> TELL ME
-2.2878 <s> TELL SOMETHING
-1.8107 <s> TELL THE
-2.2878 <s> TELL YOUR
-0.3010 <s> THANK YOU
-0.3010 <s> THANKS </s>
-0.5863 <s> THE PERSON
-0.6297 <s> THE ROBOT
-2.2095 <s> THE TOYOTA
-0.3010 <s> THERE IS
-0.3010 <s> THIS COMMAND
-0.6021 <s> THOMAS </s>
-0.6021 <s> THOMAS IS
-0.3010 <s> TIAGO </s>
-0.3010 <s> TOILETRIES </s>
-0.3010 <s> TV STAND
-0.6021 <s> WHAT DAY
-0.6021 <s> WHAT TIME
-0.3010 <s> WHEN WAS
-0.3010 <s> WHERE DOES
-0.3010 <s> WHICH ROBOT
-1.0792 <s> WHO INVENTED
-0.3802 <s> WHO IS
-0.3010 <s> YEAH </s>
-0.3010 <s> YES </s>
-0.3010 <s> ﻿MEET SAMUEL
-0.3010 <s> ﻿TIAGO </s>
-0.3010 A BOY IN
-0.3010 A CANDIES </s>
-0.3010 A CONTAINERS </s>
-0.3010 A DRINKS </s>
-0.3010 A FEMALE PERSON,
-0.3010 A GIRL IN
-0.3010 A JOKE </s>
-0.3010 A LITTLE OVER
-0.3010 A LYING PERSON,
-0.3010 A MALE PERSON,
-0.3010 A MAN IN
-0.3010 A MOTH TRAPPED
-0.3010 A MOVABLE OBJECT
-0.3010 A PERSON IN
-0.3010 A POINTING LEFT
-0.4472 A QUESTION </s>
-0.8451 A QUESTION TO
-0.3010 A RELAY </s>
-0.3010 A RISING RIGHT
-0.3010 A SAKURA </s>
-0.3010 A SITTING PERSON
-0.3010 A STANDING PERSON
-0.3010 A TOILETRIES </s>
-0.3010 A WOMAN, AND
-0.3010 A: ... </s>
-0.3010 A: A LITTLE
-0.3010 A: C WAS
-0.3010 A: FROM A
-0.3010 A: I DREAM
-0.3010 A: SAKURA IS
-0.5229 A: THE HIGHEST
-1.0000 A: THE SOFTBANK
-1.0000 A: THE TOYOTA
-0.3010 A: THERE IS
-0.3979 ABOUT YOURSELF </s>
-1.0000 ABOUT YOURSELF TO
-0.3010 ABOVE SEA LEVEL
-0.3010 ABOVE THE MELON
-0.3010 ACCESS DOORS TO
-0.6021 ACCESS TO BAR
-0.6021 ACCESS TO BEDSIDE
-0.3010 ACCOMPANY BRIAN TO
-0.3010 ACCOMPANY CHARLIE FROM
-0.3010 ACCOMPANY EDWARD FROM
-0.6021 ACCOMPANY ERIK FROM
-0.6021 ACCOMPANY ERIK TO
-0.3010 ACCOMPANY ERIKA FROM
-1.0000 ACCOMPANY HER BACK
-0.3979 ACCOMPANY HER TO
-1.2553 ACCOMPANY HIM </s>
-0.7782 ACCOMPANY HIM BACK
-0.5563 ACCOMPANY HIM TO
-0.3010 ACCOMPANY MICHAEL FROM
-0.3010 ACCOMPANY SAMUEL FROM
-0.3010 AFFILIATION TO HANNA
-0.3010 AFTER B IN
-0.3010 AFTER CHARLIE </s>
-0.3010 AFTER EDWARD </s>
-0.6021 AFTER HER </s>
-0.6021 AFTER HER TO
-0.3010 AFTER HER, AND
-0.5643 AFTER HIM </s>
-0.6435 AFTER HIM TO
-0.3010 AFTER HIM, AND
-0.3010 AFTER IT </s>
-0.3010 AFTER SAMANTHA </s>
-0.3010 AFTER SKYLER FROM
-0.3010 AFTER SOPHIE FROM
-0.3010 AFTER THOMAS FROM
-0.3010 AKIHITO SAMA IS
-0.3010 ALEX AND TAKE
-0.3010 ALEX AT THE
-0.3010 ALEX FROM THE
-0.3010 ALEX IN THE
-0.3010 ALEX IS AT
-0.3010 ALEX MUST BE
-0.3010 ALEX OUTSIDE THE
-0.3010 ALEX TO THE
-0.9031 ALEX, AND ACCOMPANY
-0.6021 ALEX, AND GO
-0.9031 ALEX, AND TELL
-0.3010 ALL ACCESS DOORS
-0.7482 AND ACCOMPANY HER
-0.4929 AND ACCOMPANY HIM
-0.3010 AND ANSWER A
-0.3010 AND BRING IT
-0.3010 AND COME AFTER
-0.3010 AND DELIVER IT
-0.3010 AND DENNIS RITCHIE.
-0.7782 AND ESCORT HER
-0.4771 AND ESCORT HIM
-0.7782 AND FOLLOW HER
-0.6021 AND FOLLOW HIM
-1.0792 AND FOLLOW IT
-0.3010 AND GIVE IT
-0.5006 AND GO AFTER
-0.7347 AND GO TO
-0.5229 AND GUIDE HER
-0.6990 AND GUIDE HIM
-0.3010 AND ITS TREE
-0.5643 AND LEAD HER
-0.6435 AND LEAD HIM
-0.3010 AND NAVIGATE TO
-0.3010 AND OPL ONLY
-0.3010 AND PLACE IT
-0.3010 AND PUT IT
-1.1461 AND SAY A
-0.8451 AND SAY SOMETHING
-0.8451 AND SAY THE
-0.8451 AND SAY YOUR
-0.7782 AND TAKE HER
-0.4771 AND TAKE HIM
-1.0000 AND TELL SOMETHING
-0.6990 AND TELL THE
-1.3010 AND TELL WHAT
-0.8239 AND TELL YOUR
-0.3010 ANNOUNCED YET. </s>
-0.3010 ANSWER A QUESTION
-0.3010 APPLE FROM THE
-0.3010 APPLE ON THE
-0.3010 APPLE THERE ARE
-0.3010 APPLE TO THE
-0.6021 APPLE, AND DELIVER
-0.6021 APPLE, AND PUT
-0.3010 ARE FEMALE </s>
-0.3010 ARE GIRLS </s>
-0.3010 ARE ON THE
-0.3010 ARE STANDING </s>
-0.3010 ARE THE THREE
-0.3010 ARM PERSON IN
-0.3010 AT BELL LABS
-0.3010 AT LEAST 5
-1.2983 AT THE BED
-1.6573 AT THE BED,
-2.2014 AT THE BOOKCASE
-1.5024 AT THE CABINET
-2.0253 AT THE CABINET,
-2.5024 AT THE COUNTER
-2.0253 AT THE CUPBOARD
-1.2720 AT THE DESK
-1.9004 AT THE DESK,
-1.1045 AT THE DINING
-2.2014 AT THE LEFT
-0.9709 AT THE LIVING
-2.5024 AT THE SIDESHELF
-1.5024 AT THE SINK
-1.8035 AT THE SINK,
-1.2237 AT THE TV
-0.3010 B IN 1972
-0.3010 B PROGRAMMING LANGUAGE?
-0.3010 B WAS DEVELOPED
-0.7782 BAR AND GIVE
-0.4771 BAR AND PLACE
-0.3010 BAR FROM THE
-0.3010 BAR TO THE
-0.3010 BAR WITH A
-0.3010 BARBARA AT THE
-0.3010 BARBARA IS AT
-0.3010 BARBARA MUST BE
-0.3010 BARBARA OUTSIDE THE
-0.3010 BARBARA TO THE
-1.0000 BARBARA, AND ACCOMPANY
-1.0000 BARBARA, AND COME
-0.6990 BARBARA, AND ESCORT
-1.0000 BARBARA, AND LEAD
-0.9031 BATHROOM AND ANSWER
-0.7270 BATHROOM AND SAY
-0.7270 BATHROOM AND TELL
-0.3010 BATHROOM TO THE
-0.3010 BE CLOSED. </s>
-0.3010 BE HOSTED? </s>
-0.3010 BE TAKEN FROM
-0.9031 BED AND COME
-0.6021 BED AND GO
-0.9031 BED AND TAKE
-0.3010 BED BUT SOMEWHERE
-0.3010 BED THE SOAP
-1.0792 BED TO DINING
-0.4771 BED TO THE
-1.0792 BED TO TV
-0.3010 BED, BUT HE
-0.7782 BED, FOLLOW HER,
-0.4771 BED, FOLLOW HIM,
-0.3010 BED, GO AFTER
-1.0792 BED, MEET BRIAN,
-1.0792 BED, MEET ERIK,
-1.0792 BED, MEET HANNA,
-1.0792 BED, MEET MICHAEL,
-1.0792 BED, MEET SAMUEL,
-1.0792 BED, MEET SKYLER,
-0.3010 BED, YOU MAY
-0.4771 BEDROOM AND ANSWER
-0.7782 BEDROOM AND TELL
-0.3010 BEDROOM BUST BE
-0.3010 BEDROOM, FIND A
-0.6021 BEDROOM, LOCATE SKYLER,
-0.6021 BEDROOM, LOCATE SOMEONE,
-0.7782 BEDSIDE AND BRING
-0.4771 BEDSIDE AND PLACE
-0.3010 BEDSIDE WITH A
-0.3010 BEDSIDE, FIND THE
-0.3010 BEDSIDE, LOCATE THE
-0.3010 BEEN ANNOUNCED YET.
-0.3010 BEER FROM THE
-0.3010 BEER IN THE
-0.3010 BEER ON THE
-0.3010 BEER THERE ARE
-0.3010 BEER TO ALEX
-0.3010 BEER WITH JACKIE
-0.7782 BEER, AND BRING
-0.7782 BEER, AND DELIVER
-0.7782 BEER, AND FOLLOW
-0.9542 BEFORE REACHING IT
-0.4102 BEFORE REACHING THE
-0.3010 BEHIND THE CLOTH
-0.3010 BEING GUIDED MUST
-0.3010 BELL LABS </s>
-0.3010 BIGGEST FOOD ON
-0.6021 BIGGEST OBJECT FROM
-0.6021 BIGGEST OBJECT ON
-0.3010 BIGGEST OBJECTS ON
-0.3010 BLOCK ACCESS TO
-0.3010 BLOSSOM AND ITS
-0.3010 BOOKCASE BUT SOMEWHERE
-0.3010 BOWL IN THE
-0.9031 BOWL THE COKE
-0.9031 BOWL THE FLAKES
-0.6021 BOWL THE NOODLES
-0.3010 BOWL THERE ARE
-0.3010 BOY IN THE
-0.3010 BRIAN AT THE
-0.3010 BRIAN FROM THE
-0.3010 BRIAN IS AT
-0.3010 BRIAN OUTSIDE THE
-0.3010 BRIAN TO THE
-0.6021 BRIAN, AND FOLLOW
-0.6021 BRIAN, AND GO
-0.3010 BRING IT TO
-1.1461 BRING ME A
-0.3680 BRING ME THE
-0.6021 BRING THE APPLE
-0.9031 BRING THE MANJU
-0.9031 BRING THE MINTS
-0.7782 BRING TO BRIAN
-0.4771 BRING TO SAMANTHA
-0.3010 BUG COME FROM?
-0.3010 BUST BE CLOSED.
-0.3010 BUT HE WILL
-0.3010 BUT SOMEWHERE ELSE
-0.3010 BY THE REFEREE
-0.3010 C PROGRAMMING LANGUAGE?
-0.3010 C WAS DEVELOPED
-0.6021 CABINET AND FOLLOW
-0.6021 CABINET AND TAKE
-0.3010 CABINET BUT SOMEWHERE
-0.8451 CABINET TO SINK,
-0.4472 CABINET TO THE
-0.3010 CABINET, COME AFTER
-0.3010 CABINET, FOLLOW HIM,
-0.3010 CABINET, GO AFTER
-0.3010 CABINET, LOCATE THE
-0.3010 CABINET, LOOK FOR
-1.2553 CABINET, MEET BARBARA,
-0.9542 CABINET, MEET EDWARD,
-0.9542 CABINET, MEET KEN,
-0.6532 CABINET, MEET SAMANTHA,
-0.3010 CAN FIND HIM
-0.3010 CANDIES FROM THE
-0.3010 CANDIES IN THE
-0.3010 CANDIES ON THE
-0.3010 CANDIES TO ME
-0.3010 CANDIES WITH SAMUEL
-0.4150 CENTER TABLE </s>
-0.9379 CENTER TABLE AND
-0.3010 CENTER TABLE, LOCATE
-0.3010 CEREALS INTO THE
-0.3010 CHARLIE AT THE
-0.3010 CHARLIE FROM THE
-0.3010 CHARLIE IS AT
-0.3010 CHARLIE MUST BE
-0.3010 CHARLIE OUTSIDE THE
-0.3010 CHARLIE TO THE
-1.0000 CHARLIE, AND COME
-1.0000 CHARLIE, AND FOLLOW
-1.0000 CHARLIE, AND GO
-1.0000 CHARLIE, AND LEAD
-1.0000 CHARLIE, AND TAKE
-0.3010 CHERRY BLOSSOM AND
-0.4771 CHOCOLATE BAR </s>
-0.7782 CHOCOLATE BAR FROM
-0.3010 CHOCOLATE EGG </s>
-0.3010 CIRCA 1969 AT
-0.3010 CITY WILL NEXT
-0.3010 CLOTH FROM THE
-0.3010 CLOTH IN THE
-0.7782 CLOTH THE APPLE
-0.7782 CLOTH THE PAPRIKA
-0.7782 CLOTH THE PEANUTS
-0.3010 CLOTH THERE ARE
-0.3010 COKE FROM THE
-0.3010 COKE IN THE
-0.3010 COKE ON THE
-0.3010 COKE THERE ARE
-0.3010 COKE TO THE
-0.3010 COKE WITH SKYLER
-0.3010 COKE, AND FOLLOW
-0.9445 COME AFTER HER
-1.1663 COME AFTER HER,
-1.0414 COME AFTER HIM
-0.7984 COME AFTER HIM,
-1.3424 COME AFTER IT
-1.6435 COME AFTER THOMAS
-0.3010 COME FROM? </s>
-0.3010 COMMAND IS FOR
-0.3010 COMPUTER BUG COME
-0.3010 CONTAINERS IN THE
-0.3010 CONTAINERS TO ME
-0.3010 CONTAINERS WITH HANNA
-0.3010 CONTAINERS, AND COME
-0.3979 CORRIDOR AND ANSWER
-1.0000 CORRIDOR AND TELL
-0.3010 CORRIDOR, FIND SOMEONE,
-0.6021 CORRIDOR, LOCATE A
-0.6021 CORRIDOR, LOCATE SOMEONE,
-0.3010 CORRIDOR, LOOK FOR
-1.6128 COULD YOU ACCOMPANY
-1.4367 COULD YOU BRING
-1.9138 COULD YOU DELIVER
-1.9138 COULD YOU FIND
-1.9138 COULD YOU FOLLOW
-1.6128 COULD YOU GIVE
-1.9138 COULD YOU LOOK
-1.3118 COULD YOU MEET
-1.6128 COULD YOU NAVIGATE
-0.5521 COULD YOU PLEASE
-1.9138 COULD YOU POUR
-0.3010 COUNTER BUT SOMEWHERE
-0.3010 COUNTER, FIND THE
-0.3010 COUNTER, LOOK FOR
-0.3010 CUPBOARD AND DELIVER
-0.3010 CUPBOARD BUT SOMEWHERE
-0.3010 CUPBOARD TO THE
-0.3010 CUPBOARD, LOCATE THE
-0.3010 CUPBOARD, LOOK FOR
-0.6021 DAY IS TODAY
-0.6021 DAY IS TODAY?
-0.3010 DAY OF THE
-0.3010 DEFINED FOR OPL
-0.3010 DELIVER CANDIES TO
-0.3010 DELIVER CONTAINERS TO
-0.3010 DELIVER FOOD TO
-0.3010 DELIVER IT TO
-0.7782 DELIVER THE MANJU
-0.7782 DELIVER THE PAPRIKA
-0.7782 DELIVER THE PEANUTS
-0.3010 DENNIS RITCHIE. </s>
-0.9031 DESK AND DELIVER
-0.9031 DESK AND ESCORT
-0.9031 DESK AND FOLLOW
-0.9031 DESK AND PLACE
-0.3010 DESK BUT SOMEWHERE
-0.3010 DESK TO THE
-0.3010 DESK, BUT HE
-0.3010 DESK, COME AFTER
-0.6021 DESK, FOLLOW HER,
-0.6021 DESK, FOLLOW HIM,
-0.3010 DESK, LOCATE THE
-0.3010 DESK, LOOK FOR
-0.6021 DESK, MEET CHARLIE,
-0.9031 DESK, MEET JACKIE,
-0.9031 DESK, MEET MICHAEL,
-1.2788 DESTINATION IS BATHROOM
-1.2788 DESTINATION IS BED
-1.1027 DESTINATION IS BEDROOM
-1.2788 DESTINATION IS CABINET
-1.2788 DESTINATION IS CORRIDOR
-1.5798 DESTINATION IS KITCHEN
-1.2788 DESTINATION IS LIVING
-1.2788 DESTINATION IS OFFICE
-1.2788 DESTINATION IS SINK
-1.5798 DESTINATION IS TV
-0.3010 DEVELOPED AFTER B
-0.3010 DEVELOPED CIRCA 1969
-0.3010 DEVIATE WHEN INDICATED
-0.4600 DINING TABLE </s>
-1.3945 DINING TABLE AND
-1.3153 DINING TABLE BUT
-2.0934 DINING TABLE THE
-1.2483 DINING TABLE TO
-1.2041 DINING TABLE, BUT
-1.2041 DINING TABLE, COME
-1.2041 DINING TABLE, FOLLOW
-1.5051 DINING TABLE, GO
-0.6021 DINING TABLE, MEET
-1.5051 DINING TABLE, YOU
-0.3010 DO YOU HAVE
-0.3010 DOES THE TERM
-0.3010 DOMESTIC STANDARD PLATFORM
-1.0792 DOORS TO BEDROOM
-0.7782 DOORS TO KITCHEN
-1.0792 DOORS TO LIVING
-0.7782 DOORS TO OFFICE
-0.7782 DRAWER AND DELIVER
-0.7782 DRAWER AND PLACE
-0.7782 DRAWER AND PUT
-0.3010 DRAWER, FIND THE
-0.3010 DRAWER, LOCATE THE
-0.3010 DRAWER, LOOK FOR
-0.3010 DREAM OF ELECTRIC
-0.3010 DRINKS FROM THE
-0.3010 DRINKS IN THE
-0.3010 DRINKS ON THE
-0.3010 DRINKS THERE ARE
-0.6021 DRINKS WITH SAMANTHA
-0.6021 DRINKS WITH SAMUEL
-0.3010 DRINKS, AND FOLLOW
-0.3010 DSPL AND OPL
-0.3010 EDWARD AT THE
-0.3010 EDWARD FROM THE
-0.3010 EDWARD IN THE
-0.3010 EDWARD IS AT
-0.3010 EDWARD OUTSIDE THE
-0.3010 EDWARD TO THE
-0.3010 EDWARD, AND FOLLOW
-0.3010 ELECTRIC SHEEP. </s>
-0.3010 ELSE IN THE
-0.3010 EMPEROR IN JAPAN
-0.3010 EMPEROR OF JAPAN?
-0.3010 ERIK AT THE
-0.3010 ERIK FROM THE
-0.3010 ERIK IN THE
-0.3010 ERIK OUTSIDE THE
-0.3010 ERIK TO THE
-0.6021 ERIK, AND ACCOMPANY
-0.6021 ERIK, AND COME
-0.3010 ERIKA AT THE
-0.3010 ERIKA FROM THE
-0.3010 ERIKA IS AT
-0.3010 ERIKA OUTSIDE THE
-0.3010 ERIKA TO THE
-0.3010 ERIKA, AND FOLLOW
-0.3010 ESCORT ALEX FROM
-0.6021 ESCORT ERIKA FROM
-0.6021 ESCORT ERIKA TO
-1.0000 ESCORT HER </s>
-1.0000 ESCORT HER BACK
-0.5229 ESCORT HER TO
-0.8239 ESCORT HIM </s>
-0.5229 ESCORT HIM BACK
-1.3010 ESCORT HIM TO
-0.3010 ESCORT JACKIE FROM
-0.3010 ESCORT KEN FROM
-0.3010 ESCORT THOMAS TO
-0.3010 FEMALE PERSON, AND
-1.2041 FIND A BOY
-1.2041 FIND A GIRL
-1.2041 FIND A MALE
-1.2041 FIND A PERSON
-1.2041 FIND A POINTING
-1.2041 FIND A RISING
-0.9031 FIND A SITTING
-0.3010 FIND ALEX IN
-0.3010 FIND EDWARD IN
-0.3010 FIND HER AT
-0.3010 FIND HIM AT
-0.3010 FIND JACKIE, AND
-0.3010 FIND SAMANTHA IN
-0.3010 FIND SOMEONE IN
-0.3010 FIND SOMEONE, AND
-0.3010 FIND SOPHIE IN
-0.3010 FIND SOPHIE, AND
-1.8573 FIND THE BEER
-1.8573 FIND THE BOWL
-1.5563 FIND THE CANDIES
-1.5563 FIND THE CLOTH
-1.8573 FIND THE COKE
-1.8573 FIND THE CONTAINERS
-1.5563 FIND THE DRINKS
-1.1584 FIND THE FOOD
-1.8573 FIND THE MANJU
-1.8573 FIND THE MANJU,
-1.5563 FIND THE MINTS
-1.8573 FIND THE MINTS,
-1.8573 FIND THE NOODLES,
-1.3802 FIND THE PAPRIKA
-1.3802 FIND THE PEANUTS
-1.8573 FIND THE PEANUTS,
-1.5563 FIND THE PRINGLES
-1.8573 FIND THE PRINGLES,
-1.8573 FIND THE SNACKS
-1.8573 FIND THE SOAP
-1.5563 FIND THE TEA
-1.8573 FIND THE TOILETRIES
-0.6021 FIND THREE SNACKS
-0.6021 FIND THREE TOILETRIES
-0.3010 FLAKES FROM THE
-0.3010 FLAKES TO THE
-0.7782 FOLLOW ALEX FROM
-0.4771 FOLLOW ALEX OUTSIDE
-0.3010 FOLLOW BARBARA OUTSIDE
-0.6021 FOLLOW BRIAN OUTSIDE
-0.6021 FOLLOW BRIAN TO
-1.2041 FOLLOW CHARLIE FROM
-0.5051 FOLLOW CHARLIE OUTSIDE
-0.9031 FOLLOW CHARLIE TO
-1.2041 FOLLOW EDWARD </s>
-0.4260 FOLLOW EDWARD OUTSIDE
-1.2041 FOLLOW EDWARD TO
-0.3010 FOLLOW ERIK OUTSIDE
-0.3010 FOLLOW ERIKA OUTSIDE
-0.7782 FOLLOW HANNA OUTSIDE
-0.4771 FOLLOW HANNA TO
-0.6021 FOLLOW HER </s>
-0.6021 FOLLOW HER TO
-0.3010 FOLLOW HER, AND
-0.4102 FOLLOW HIM </s>
-0.9542 FOLLOW HIM TO
-0.3010 FOLLOW HIM, AND
-0.3010 FOLLOW IT </s>
-0.3010 FOLLOW JACKIE OUTSIDE
-0.4771 FOLLOW KEN OUTSIDE
-0.7782 FOLLOW KEN TO
-1.0792 FOLLOW MICHAEL </s>
-0.6021 FOLLOW MICHAEL OUTSIDE
-0.7782 FOLLOW MICHAEL TO
-1.0000 FOLLOW SAMANTHA </s>
-1.0000 FOLLOW SAMANTHA FROM
-1.0000 FOLLOW SAMANTHA OUTSIDE
-0.6990 FOLLOW SAMANTHA TO
-0.3010 FOLLOW SAMUEL OUTSIDE
-0.5051 FOLLOW SKYLER OUTSIDE
-0.7270 FOLLOW SKYLER TO
-0.6021 FOLLOW SOPHIE FROM
-0.6021 FOLLOW SOPHIE OUTSIDE
-1.0000 FOLLOW THOMAS </s>
-0.3979 FOLLOW THOMAS TO
-0.3010 FOOD IN THE
-0.3010 FOOD ON THE
-0.6021 FOOD TO ALEX
-0.6021 FOOD TO ME
-0.8451 FOR A FEMALE
-1.1461 FOR A MAN
-0.8451 FOR A PERSON
-1.1461 FOR A SITTING
-1.1461 FOR A WOMAN,
-0.3010 FOR ALEX, AND
-0.3010 FOR DSPL AND
-0.3010 FOR ERIK IN
-0.3010 FOR OPL </s>
-0.3010 FOR ORNAMENTAL CHERRY
-0.3010 FOR SAMUEL IN
-0.3010 FOR SOMEONE IN
-1.8325 FOR THE BEER
-1.8325 FOR THE BOWL
-1.1335 FOR THE CANDIES
-1.5315 FOR THE CLOTH
-1.5315 FOR THE COKE
-1.3554 FOR THE DRINKS
-1.1335 FOR THE FOOD
-1.8325 FOR THE MANJU
-1.5315 FOR THE MANJU,
-1.8325 FOR THE NOODLES
-1.8325 FOR THE PAPRIKA,
-1.8325 FOR THE PEANUTS,
-1.8325 FOR THE PRINGLES
-1.8325 FOR THE PRINGLES,
-1.5315 FOR THE SNACKS
-1.8325 FOR THE SOAP,
-1.5315 FOR THE TEA
-1.5315 FOR THE TRAY
-0.3010 FOR THOMAS, AND
-0.6021 FOR THREE CANDIES
-0.6021 FOR THREE TOILETRIES
-0.3010 FRIDGE AND PUT
-0.3010 FRIDGE, LOCATE THE
-0.3010 FROM A MOTH
-0.3010 FROM BED TO
-0.3010 FROM CABINET TO
-0.3010 FROM DINING TABLE
-0.3010 FROM LIVING TABLE
-0.3010 FROM SINK TO
-1.5315 FROM THE BAR
-1.7745 FROM THE BATHROOM
-1.7745 FROM THE BED
-1.5315 FROM THE BEDSIDE
-2.3766 FROM THE BOOKCASE
-1.5984 FROM THE CABINET
-1.6776 FROM THE CENTER
-2.3766 FROM THE CHOCOLATE
-2.0755 FROM THE COKE
-2.0755 FROM THE COUNTER
-1.5315 FROM THE CUPBOARD
-1.3766 FROM THE DESK
-1.3352 FROM THE DINING
-1.4735 FROM THE DRAWER
-2.3766 FROM THE FLAKES
-1.7745 FROM THE FRIDGE
-1.2974 FROM THE LIVING
-2.0755 FROM THE MELON
-2.3766 FROM THE MUG
-2.3766 FROM THE PAPRIKA
-2.3766 FROM THE PRINGLES
-1.8995 FROM THE SIDESHELF
-1.5984 FROM THE SINK
-2.3766 FROM THE SOAP
-2.3766 FROM THE SUSHI
-1.3352 FROM THE TV
-0.3010 FROM TV STAND
-0.3010 FUJI, WHICH REACHES
-0.3010 GENDER OF THE
-0.3010 GET LOST BEFORE
-1.1461 GET THE BOWL
-1.1461 GET THE CLOTH
-1.1461 GET THE COKE
-1.1461 GET THE MANJU
-1.1461 GET THE PAPRIKA
-1.1461 GET THE PRINGLES
-1.1461 GET THE TEA
-0.3010 GIRL IN THE
-0.3010 GIVE IT TO
-1.3010 GIVE ME A
-0.3468 GIVE ME THE
-0.9031 GIVE THE BEER
-0.9031 GIVE THE MANJU
-0.9031 GIVE THE PAPRIKA
-0.9031 GIVE THE PRINGLES
-0.3010 GLASS FROM THE
-1.7782 GO AFTER CHARLIE
-1.7782 GO AFTER EDWARD
-1.0792 GO AFTER HER
-1.0792 GO AFTER HER,
-0.9331 GO AFTER HIM
-0.8751 GO AFTER HIM,
-1.7782 GO AFTER SAMANTHA
-1.7782 GO AFTER SKYLER
-1.7782 GO AFTER SOPHIE
-0.3010 GO TO THE
-1.2788 GRASP THE APPLE
-1.2788 GRASP THE BOWL
-1.2788 GRASP THE CLOTH
-1.2788 GRASP THE COKE
-1.2788 GRASP THE MINTS
-1.5798 GRASP THE PAPRIKA
-1.5798 GRASP THE PEANUTS
-1.5798 GRASP THE PRINGLES
-1.1027 GRASP THE SOAP
-1.1027 GRASP THE TRAY
-0.3010 GUIDE CHARLIE FROM
-0.7782 GUIDE HER </s>
-0.4771 GUIDE HER TO
-0.3010 GUIDE HIM BACK
-0.3010 GUIDE KEN FROM
-0.3010 GUIDE SOPHIE FROM
-0.3010 GUIDE THE DRINKS
-0.3010 GUIDE THOMAS TO
-0.3010 GUIDED MUST DEVIATE
-0.3010 HANNA AND LEAD
-0.3010 HANNA AT THE
-0.3010 HANNA MUST BE
-0.3010 HANNA OUTSIDE THE
-0.3010 HANNA TO THE
-0.9031 HANNA, AND COME
-0.4260 HANNA, AND FOLLOW
-0.3010 HASN'T BEEN ANNOUNCED
-0.3010 HAVE DREAMS? </s>
-0.3010 HE WILL GET
-0.3010 HEAVIEST CANDIES FROM
-0.6021 HEAVIEST OBJECT FROM
-0.6021 HEAVIEST OBJECT ON
-0.3010 HEAVIEST OBJECTS ON
-0.3010 HER AT THE
-0.3010 HER BACK </s>
-0.3010 HER TO THE
-1.4472 HER, AND ACCOMPANY
-1.4472 HER, AND ESCORT
-0.7482 HER, AND GO
-1.4472 HER, AND LEAD
-0.7482 HER, AND NAVIGATE
-1.4472 HER, AND TAKE
-0.3010 HIGHEST POINT IN
-0.3010 HIM AT THE
-0.3010 HIM BACK </s>
-0.3010 HIM TO THE
-1.2041 HIM, AND ACCOMPANY
-0.9031 HIM, AND ESCORT
-1.3802 HIM, AND GO
-1.3802 HIM, AND GUIDE
-1.3802 HIM, AND LEAD
-0.9031 HIM, AND NAVIGATE
-1.2041 HIM, AND TAKE
-0.3010 HIS MAJESTY AKIHITO
-1.5229 HOW MANY APPLE
-1.3979 HOW MANY BEER
-1.3979 HOW MANY BOWL
-1.6990 HOW MANY CLOTH
-1.5229 HOW MANY COKE
-2.0000 HOW MANY DRINKS
-2.0000 HOW MANY MANJU
-1.6990 HOW MANY MINTS
-2.0000 HOW MANY NOODLES
-1.6990 HOW MANY PAPRIKA
-2.0000 HOW MANY PEANUTS
-1.0969 HOW MANY PEOPLE
-1.3979 HOW MANY PRINGLES
-2.0000 HOW MANY SNACKS
-1.3979 HOW MANY SOAP
-1.6990 HOW MANY TEA
-1.1549 HOW MANY TRAY
-0.3010 HUMAN SUPPORT ROBOT
-0.3010 I DREAM OF
-0.3010 IN 1972 AT
-0.3010 IN A RELAY
-0.8653 IN JAPAN </s>
-0.8653 IN JAPAN IS
-0.6435 IN JAPAN SINCE
-2.6191 IN THE BAR
-1.1719 IN THE BATHROOM
-1.5777 IN THE BEDROOM
-2.6191 IN THE BEDSIDE
-2.6191 IN THE CABINET
-2.3181 IN THE CENTER
-1.2767 IN THE CORRIDOR
-2.3181 IN THE COUNTER
-2.1420 IN THE CUPBOARD
-2.3181 IN THE DESK
-2.3181 IN THE DINING
-2.3181 IN THE DOMESTIC
-2.1420 IN THE DRAWER
-2.3181 IN THE FRIDGE
-2.0170 IN THE JAPAN?
-1.1719 IN THE KITCHEN
-1.2389 IN THE LIVING
-1.2041 IN THE OFFICE
-2.3181 IN THE OPEN
-1.6649 IN THE ROOM
-1.1719 IN THE SAME
-2.6191 IN THE SIDESHELF
-2.6191 IN THE SINK
-2.6191 IN THE SOCIAL
-2.3181 IN THE TV
-0.3010 IN WHICH CITY
-0.3010 INDICATED BY THE
-0.3010 INTO THE BOWL
-0.6690 INVENTED THE B
-0.5441 INVENTED THE C
-0.3010 IS A SAKURA
-0.3010 IS AT THE
-0.3010 IS BATHROOM </s>
-0.3010 IS BED </s>
-0.3010 IS BEDROOM </s>
-0.3010 IS CABINET </s>
-0.3010 IS CORRIDOR </s>
-0.3010 IS FOR DSPL
-0.3010 IS IT? </s>
-0.3010 IS KITCHEN </s>
-0.6021 IS LIVING ROOM
-0.6021 IS LIVING TABLE
-0.3010 IS MOUNT FUJI,
-0.3010 IS NO STANDARD
-0.3010 IS NOT AT
-0.3010 IS OFFICE </s>
-0.3010 IS SINK </s>
-0.4472 IS THE EMPEROR
-0.9700 IS THE HIGHEST
-1.4472 IS THE JAPANESE
-0.3010 IS TODAY </s>
-0.3010 IS TODAY? </s>
-0.3010 IS TV STAND
-0.3010 IS USED IN
-0.3010 IT HASN'T BEEN
-0.3010 IT ON THE
-1.7160 IT TO ALEX
-1.4150 IT TO BARBARA
-1.7160 IT TO BRIAN
-1.7160 IT TO CHARLIE
-1.4150 IT TO ERIKA
-1.7160 IT TO HANNA
-1.7160 IT TO JACKIE
-1.4150 IT TO KEN
-0.6021 IT TO ME
-1.4150 IT TO SKYLER
-0.3010 ITS TREE </s>
-0.3010 JACKIE AT THE
-0.3010 JACKIE FROM THE
-0.3010 JACKIE OUTSIDE THE
-0.3010 JACKIE TO THE
-0.6021 JACKIE, AND GUIDE
-0.6021 JACKIE, AND TELL
-0.3010 JANUARY 7, 1989
-0.3010 JAPAN IS MOUNT
-0.3010 JAPAN SINCE JANUARY
-0.3010 JAPANESE TERM FOR
-0.3010 KEN AT THE
-0.3010 KEN FROM THE
-0.3010 KEN MUST BE
-0.3010 KEN OUTSIDE THE
-0.3010 KEN THOMPSON AND
-0.3010 KEN TO THE
-1.0000 KEN, AND ACCOMPANY
-0.6990 KEN, AND FOLLOW
-0.6990 KEN, AND TAKE
-0.6021 KITCHEN AND ANSWER
-0.6021 KITCHEN AND TELL
-0.3010 KITCHEN ARE STANDING
-0.3010 KITCHEN BUST BE
-0.6021 LARGEST OBJECT FROM
-0.6021 LARGEST OBJECT ON
-0.3010 LARGEST OBJECTS ON
-0.3010 LARGEST SNACKS ON
-0.3010 LARGEST TOILETRIES FROM
-0.3010 LEAD ALEX TO
-0.3010 LEAD CHARLIE TO
-0.3010 LEAD EDWARD TO
-0.3010 LEAD ERIKA TO
-0.7782 LEAD HER </s>
-1.0792 LEAD HER BACK
-0.6021 LEAD HER TO
-1.0000 LEAD HIM </s>
-0.6990 LEAD HIM BACK
-0.6990 LEAD HIM TO
-0.3010 LEAD KEN FROM
-0.3010 LEAD MICHAEL FROM
-0.3010 LEAST 5 OBJECTS
-0.3010 LEFT ARM PERSON
-0.3010 LEFT MOST OBJECT
-0.3010 LEFT OF THE
-0.3010 LEFT PERSON IN
-0.3010 LEFT PERSON, AND
-0.3010 LIGHTEST CANDIES FROM
-0.3010 LIGHTEST DRINKS ON
-0.3010 LIGHTEST FOOD ON
-0.3010 LIGHTEST OBJECTS ON
-0.3010 LIGHTEST SNACKS FROM
-0.3010 LITTLE OVER 80
-0.3010 LIVE IN THE
-0.4472 LIVING ROOM </s>
-1.1461 LIVING ROOM AND
-1.5441 LIVING ROOM ARE
-1.8451 LIVING ROOM BUST
-1.5441 LIVING ROOM TO
-0.4771 LIVING ROOM, FIND
-0.7782 LIVING ROOM, LOOK
-0.4058 LIVING SHELF </s>
-1.1461 LIVING SHELF AND
-1.4472 LIVING SHELF BUT
-0.4529 LIVING TABLE </s>
-1.3874 LIVING TABLE AND
-1.3082 LIVING TABLE BUT
-1.2413 LIVING TABLE TO
-1.6232 LIVING TABLE, BUT
-1.1461 LIVING TABLE, COME
-1.6232 LIVING TABLE, FIND
-1.3222 LIVING TABLE, FOLLOW
-1.1461 LIVING TABLE, GO
-1.3222 LIVING TABLE, LOCATE
-0.7202 LIVING TABLE, MEET
-1.6232 LIVING TABLE, YOU
-1.0000 LOCATE A GIRL
-1.0000 LOCATE A LYING
-1.0000 LOCATE A PERSON
-1.0000 LOCATE A STANDING
-1.0000 LOCATE A WOMAN,
-0.3010 LOCATE SKYLER IN
-0.3010 LOCATE SKYLER, AND
-0.3010 LOCATE SOMEONE IN
-0.3010 LOCATE SOMEONE, AND
-1.5051 LOCATE THE APPLE,
-1.8062 LOCATE THE BEER
-1.5051 LOCATE THE BEER,
-1.8062 LOCATE THE BOWL
-1.3291 LOCATE THE CANDIES
-1.5051 LOCATE THE CLOTH
-1.5051 LOCATE THE MANJU
-1.8062 LOCATE THE MANJU,
-1.8062 LOCATE THE MINTS
-1.3291 LOCATE THE MINTS,
-1.5051 LOCATE THE NOODLES,
-1.5051 LOCATE THE PAPRIKA,
-1.8062 LOCATE THE PEANUTS,
-1.8062 LOCATE THE PRINGLES
-1.8062 LOCATE THE PRINGLES,
-1.5051 LOCATE THE SNACKS
-1.8062 LOCATE THE SOAP,
-1.5051 LOCATE THE TEA
-1.5051 LOCATE THE TOILETRIES
-1.0000 LOCATE THREE CANDIES
-1.0000 LOCATE THREE CONTAINERS
-0.6990 LOCATE THREE SNACKS
-1.0000 LOCATE THREE TOILETRIES
-1.1461 LOOK FOR A
-1.9912 LOOK FOR ALEX,
-1.9912 LOOK FOR ERIK
-1.9912 LOOK FOR SAMUEL
-1.6902 LOOK FOR SOMEONE
-0.4597 LOOK FOR THE
-1.9912 LOOK FOR THOMAS,
-1.6902 LOOK FOR THREE
-0.3010 LOST BEFORE REACHING
-0.3010 LYING PERSON, AND
-0.3010 MAJESTY AKIHITO SAMA
-0.3010 MALE PERSON, AND
-0.3010 MAN IN THE
-0.3010 MANJU FROM THE
-0.3010 MANJU IN THE
-0.3010 MANJU THERE ARE
-0.6990 MANJU TO ME
-1.0000 MANJU TO SAMUEL
-0.6990 MANJU TO THE
-0.9031 MANJU, AND DELIVER
-0.9031 MANJU, AND GIVE
-0.6021 MANJU, AND PLACE
-0.3010 MANY APPLE THERE
-0.3010 MANY BEER THERE
-0.3010 MANY BOWL THERE
-0.3010 MANY CLOTH THERE
-0.3010 MANY COKE THERE
-0.3010 MANY DRINKS THERE
-0.3010 MANY MANJU THERE
-0.3010 MANY MINTS THERE
-0.3010 MANY NOODLES THERE
-0.3010 MANY PAPRIKA THERE
-0.3010 MANY PEANUTS THERE
-0.6021 MANY PEOPLE IN
-0.6021 MANY PEOPLE LIVE
-0.3010 MANY PRINGLES THERE
-0.3010 MANY SNACKS THERE
-0.3010 MANY SOAP THERE
-0.3010 MANY TEA THERE
-0.3010 MANY TRAY THERE
-0.6021 MAY FIND HER
-0.6021 MAY FIND HIM
-1.1461 ME A CANDIES
-1.1461 ME A CONTAINERS
-0.8451 ME A DRINKS
-0.6690 ME A TOILETRIES
-0.3010 ME HOW MANY
-1.7782 ME THE APPLE
-1.9542 ME THE BEER
-2.2553 ME THE BIGGEST
-2.2553 ME THE CHOCOLATE
-1.9542 ME THE CLOTH
-1.9542 ME THE COKE
-1.7782 ME THE GENDER
-1.5563 ME THE HEAVIEST
-1.9542 ME THE LARGEST
-1.7782 ME THE LEFT
-1.9542 ME THE LIGHTEST
-2.2553 ME THE MANJU
-1.9542 ME THE MELON
-1.4102 ME THE MINTS
-0.7368 ME THE NAME
-1.3522 ME THE OBJECT
-1.9542 ME THE PAPRIKA
-2.2553 ME THE PEANUTS
-1.7782 ME THE POSE
-2.2553 ME THE PRINGLES
-1.9542 ME THE RIGHT
-1.7782 ME THE TEA
-2.2553 ME THE THINNEST
-0.3010 ME WHAT'S THE
-0.3010 ME WHICH ARE
-0.9031 MEET ALEX AND
-0.4260 MEET ALEX AT
-0.3010 MEET ALEX, AND
-0.3010 MEET BARBARA AT
-0.3010 MEET BARBARA, AND
-0.3010 MEET BRIAN AT
-0.3010 MEET BRIAN, AND
-0.3010 MEET CHARLIE AT
-0.3010 MEET CHARLIE, AND
-0.3010 MEET EDWARD AT
-0.3010 MEET EDWARD, AND
-0.3010 MEET ERIK AT
-0.3010 MEET ERIK, AND
-0.3010 MEET ERIKA AT
-0.3010 MEET ERIKA, AND
-0.9031 MEET HANNA AND
-0.4260 MEET HANNA AT
-0.3010 MEET HANNA, AND
-0.3010 MEET JACKIE AT
-0.3010 MEET JACKIE, AND
-0.3010 MEET KEN AT
-0.3010 MEET KEN, AND
-0.3010 MEET MICHAEL AT
-0.3010 MEET MICHAEL, AND
-0.7782 MEET SAMANTHA AND
-0.4771 MEET SAMANTHA AT
-0.3010 MEET SAMANTHA, AND
-0.6021 MEET SAMUEL AND
-0.6021 MEET SAMUEL AT
-0.3010 MEET SAMUEL, AND
-1.2553 MEET SKYLER AND
-0.3522 MEET SKYLER AT
-0.3010 MEET SKYLER, AND
-1.0000 MEET SOPHIE AND
-0.3979 MEET SOPHIE AT
-1.0000 MEET THE BEER,
-1.0000 MEET THE COKE,
-0.6990 MEET THE CONTAINERS,
-1.0000 MEET THE DRINKS,
-0.3010 MEET THOMAS AT
-0.3010 MEET THOMAS, AND
-0.3010 MELON FROM THE
-0.3010 MICHAEL AT THE
-0.3010 MICHAEL FROM THE
-0.3010 MICHAEL IS AT
-0.3010 MICHAEL OUTSIDE THE
-0.3010 MICHAEL TO THE
-0.9031 MICHAEL, AND ACCOMPANY
-0.6021 MICHAEL, AND FOLLOW
-0.9031 MICHAEL, AND GO
-0.3010 MINTS FROM THE
-0.3010 MINTS IN THE
-0.3010 MINTS ON THE
-0.3010 MINTS THERE ARE
-0.3010 MINTS TO THE
-0.4260 MINTS, AND DELIVER
-0.9031 MINTS, AND PUT
-0.7782 MONTH TO BRIAN
-0.7782 MONTH TO EDWARD
-0.7782 MONTH TO THE
-0.3010 MOST OBJECT FROM
-0.3010 MOTH TRAPPED IN
-0.3010 MOUNT FUJI, WHICH
-0.3010 MOVABLE OBJECT OR
-0.3010 MUG FROM THE
-0.3010 MUST BE TAKEN
-0.3010 MUST DEVIATE WHEN
-1.5798 MUST FOLLOW ALEX
-1.8808 MUST FOLLOW BARBARA
-1.5798 MUST FOLLOW BRIAN
-1.1818 MUST FOLLOW CHARLIE
-1.1027 MUST FOLLOW EDWARD
-1.5798 MUST FOLLOW ERIK
-1.4037 MUST FOLLOW ERIKA
-1.5798 MUST FOLLOW HANNA
-1.5798 MUST FOLLOW JACKIE
-1.5798 MUST FOLLOW KEN
-1.4037 MUST FOLLOW MICHAEL
-1.8808 MUST FOLLOW SAMANTHA
-1.8808 MUST FOLLOW SAMUEL
-1.1818 MUST FOLLOW SKYLER
-1.8808 MUST FOLLOW SOPHIE
-0.3140 NAME OF THE
-1.8325 NAME OF YOUR
-0.3010 NAVIGATE TO THE
-0.3010 NEXT YEAR'S ROBOCUP
-0.3010 NO STANDARD DEFINED
-0.3010 NOODLES FROM THE
-0.3010 NOODLES IN THE
-0.3010 NOODLES THERE ARE
-0.3010 NOODLES TO THE
-0.7782 NOODLES, AND BRING
-0.7782 NOODLES, AND GIVE
-0.7782 NOODLES, AND PUT
-0.3010 NOT AT THE
-0.3010 OBJECT ABOVE THE
-0.3010 OBJECT AT THE
-0.3010 OBJECT BEHIND THE
-0.3010 OBJECT FROM THE
-0.6021 OBJECT ON THE
-0.6021 OBJECT ON TOP
-0.3010 OBJECT OR FURNITURE
-0.3010 OBJECTS IN THE
-0.3010 OBJECTS ON THE
-0.3010 OF ELECTRIC SHEEP.
-0.3010 OF JAPAN? </s>
-2.0334 OF THE APPLE
-2.0334 OF THE COKE
-2.0334 OF THE GLASS
-1.2553 OF THE MONTH
-2.0334 OF THE PAPRIKA
-0.4424 OF THE PERSON
-2.0334 OF THE SENBEI
-2.0334 OF THE SUSHI
-1.5563 OF THE WEEK
-0.3010 OF YOUR TEAM?
-0.6021 OFFICE AND ANSWER
-0.6021 OFFICE AND SAY
-0.3010 OFFICE ARE GIRLS
-0.3010 OFFICE BUST BE
-0.6021 OFFICE, FIND SOMEONE,
-0.6021 OFFICE, FIND SOPHIE,
-0.3010 OFFICE, LOCATE A
-0.3010 OFFICE, LOOK FOR
-1.2218 ON THE BAR
-1.3979 ON THE BEDSIDE
-1.6021 ON THE BOOKCASE
-1.6990 ON THE CABINET
-2.0000 ON THE CENTER
-1.6990 ON THE COUNTER
-1.0969 ON THE CUPBOARD
-1.6021 ON THE DESK
-1.4559 ON THE DINING
-1.6021 ON THE DRAWER
-1.3979 ON THE LIVING
-1.3468 ON THE SIDESHELF
-1.5229 ON THE SINK
-1.3468 ON THE TV
-0.3010 ON TOP OF
-0.3010 ONLY 3 OBJECTS
-0.3010 OPEN PLATFORM LEAGUE
-0.3010 OPL ONLY </s>
-0.3010 OR FURNITURE </s>
-0.3010 ORNAMENTAL CHERRY BLOSSOM
-0.3010 OUTSIDE THE ARENA
-0.3010 OVER 80 MILLION
-0.3010 PAPRIKA FROM THE
-0.3010 PAPRIKA IN THE
-0.3010 PAPRIKA ON THE
-0.3010 PAPRIKA THERE ARE
-0.6021 PAPRIKA TO ME
-0.6021 PAPRIKA TO THE
-0.7782 PAPRIKA, AND DELIVER
-0.7782 PAPRIKA, AND PLACE
-0.7782 PAPRIKA, AND PUT
-0.3010 PEANUTS FROM THE
-0.3010 PEANUTS IN THE
-0.3010 PEANUTS THERE ARE
-0.7782 PEANUTS TO ME
-0.4771 PEANUTS TO THE
-0.4771 PEANUTS, AND DELIVER
-0.7782 PEANUTS, AND PLACE
-0.3010 PEOPLE IN THE
-0.3010 PEOPLE LIVE IN
-0.3010 PERSON AT THE
-0.3010 PERSON BEING GUIDED
-0.3010 PERSON IN THE
-0.3979 PERSON, AND ANSWER
-1.0000 PERSON, AND SAY
-0.3010 PICK UP THE
-0.3010 PLACE AT LEAST
-0.3010 PLACE IT ON
-0.3010 PLACE ONLY 3
-0.6021 PLACE THE APPLE
-0.9031 PLACE THE COKE
-0.9031 PLACE THE MINTS
-0.3010 PLATFORM LEAGUE </s>
-0.3010 PLEASE ACCOMPANY EDWARD
-0.3010 PLEASE BRING ME
-0.3010 PLEASE DELIVER FOOD
-0.3010 PLEASE FOLLOW MICHAEL
-0.3010 PLEASE GIVE ME
-0.3010 PLEASE GO TO
-0.3010 PLEASE GRASP THE
-0.7782 PLEASE GUIDE CHARLIE
-0.7782 PLEASE GUIDE KEN
-0.7782 PLEASE GUIDE THE
-0.3010 PLEASE LOCATE THREE
-0.3010 PLEASE LOOK FOR
-1.5051 PLEASE MEET ALEX
-1.5051 PLEASE MEET BRIAN
-1.2041 PLEASE MEET CHARLIE
-1.0280 PLEASE MEET EDWARD
-1.5051 PLEASE MEET ERIK
-1.5051 PLEASE MEET ERIKA
-1.2041 PLEASE MEET HANNA
-1.5051 PLEASE MEET JACKIE
-1.5051 PLEASE MEET KEN
-1.2041 PLEASE MEET SKYLER
-1.5051 PLEASE MEET SOPHIE
-0.3010 PLEASE NAVIGATE TO
-0.3010 PLEASE POUR SOME
-0.3010 PLEASE PUT THE
-1.0000 PLEASE TAKE BARBARA
-1.0000 PLEASE TAKE KEN
-0.5229 PLEASE TAKE THE
-0.3010 PLEASE TELL ME
-0.3010 POINT IN JAPAN
-0.6021 POINTING LEFT PERSON
-0.6021 POINTING LEFT PERSON,
-0.3010 POINTING RIGHT PERSON
-0.3010 POSE OF THE
-0.3010 POUR SOME CEREALS
-0.3010 PRINGLES FROM THE
-0.3010 PRINGLES IN THE
-0.3010 PRINGLES THERE ARE
-0.6021 PRINGLES TO ALEX
-0.6021 PRINGLES TO THE
-0.7782 PRINGLES, AND DELIVER
-0.7782 PRINGLES, AND PLACE
-0.7782 PRINGLES, AND PUT
-0.3010 PROGRAMMING LANGUAGE? </s>
-0.3010 PUT IT ON
-1.2041 PUT THE APPLE
-1.2041 PUT THE BEER
-1.2041 PUT THE COKE
-0.9031 PUT THE PAPRIKA
-1.2041 PUT THE SOAP
-0.9031 PUT THE TEA
-0.3010 Q: DO YOU
-0.3010 Q: HOW MANY
-0.3979 Q: WHAT IS
-1.0000 Q: WHAT TIME
-0.3010 Q: WHAT'S THE
-0.3010 Q: WHEN WAS
-0.3010 Q: WHERE DOES
-0.3010 Q: WHICH ROBOT
-1.3010 QUESTION TO ALEX
-1.0000 QUESTION TO MICHAEL
-1.0000 QUESTION TO SAMANTHA
-0.6021 QUESTION TO THE
-0.3010 REACHES 3776M ABOVE
-0.3010 REACHING IT </s>
-1.0792 REACHING THE BED
-1.2253 REACHING THE CABINET
-1.3222 REACHING THE DESK
-1.2253 REACHING THE DINING
-1.0212 REACHING THE LIVING
-1.1461 REACHING THE SINK
-1.0792 REACHING THE TV
-0.3010 REFEREE BEFORE REACHING
-0.3010 REPLACE BEER WITH
-0.3010 REPLACE CANDIES WITH
-0.3010 REPLACE COKE WITH
-0.3010 REPLACE CONTAINERS WITH
-0.3010 REPLACE DRINKS WITH
-0.3010 REPLACE SENBEI WITH
-0.3010 RIGHT ARM PERSON
-0.3010 RIGHT MOST OBJECT
-0.3010 RIGHT PERSON IN
-0.3010 RISING LEFT ARM
-0.3010 RISING RIGHT ARM
-0.3010 ROBOCUP BE HOSTED?
-0.3010 ROBOT IS USED
-0.3010 ROBOT MUST FOLLOW
-1.0000 ROBOT PLEASE BRING
-1.4771 ROBOT PLEASE DELIVER
-1.1761 ROBOT PLEASE GUIDE
-1.4771 ROBOT PLEASE LOCATE
-0.7782 ROBOT PLEASE MEET
-1.1761 ROBOT PLEASE POUR
-1.4771 ROBOT PLEASE TAKE
-0.3010 ROBOTICS PEPPER </s>
-0.5229 ROOM AND ANSWER
-0.6990 ROOM AND SAY
-0.6021 ROOM ARE FEMALE
-0.6021 ROOM ARE STANDING
-0.3010 ROOM BUST BE
-0.3010 ROOM TO THE
-0.6021 ROOM, FIND JACKIE,
-0.6021 ROOM, FIND SOMEONE,
-0.3010 ROOM, LOOK FOR
-0.3010 SAKURA IS THE
-0.3010 SAMA IS THE
-0.3010 SAMANTHA AND GUIDE
-0.3010 SAMANTHA AT THE
-0.3010 SAMANTHA FROM THE
-0.3010 SAMANTHA IN THE
-0.3010 SAMANTHA IS AT
-0.3010 SAMANTHA MUST BE
-0.3010 SAMANTHA OUTSIDE THE
-0.3010 SAMANTHA TO THE
-1.0792 SAMANTHA, AND ACCOMPANY
-1.0792 SAMANTHA, AND COME
-1.0792 SAMANTHA, AND FOLLOW
-1.0792 SAMANTHA, AND GO
-1.0792 SAMANTHA, AND GUIDE
-1.0792 SAMANTHA, AND LEAD
-0.3010 SAME ROOM </s>
-0.6021 SAMUEL AND ESCORT
-0.6021 SAMUEL AND LEAD
-0.3010 SAMUEL AT THE
-0.3010 SAMUEL FROM THE
-0.3010 SAMUEL IN THE
-0.3010 SAMUEL MUST BE
-0.3010 SAMUEL OUTSIDE THE
-0.6021 SAMUEL, AND ESCORT
-0.6021 SAMUEL, AND GO
-0.3010 SAY A JOKE
-0.3010 SAY SOMETHING ABOUT
-0.4472 SAY THE DAY
-0.8451 SAY THE TIME
-0.3010 SAY YOUR TEAM'S
-0.3010 SEA LEVEL </s>
-0.3010 SENBEI FROM THE
-0.3010 SENBEI WITH ERIKA
-0.6021 SHELF AND PLACE
-0.6021 SHELF AND PUT
-0.3010 SHELF BUT SOMEWHERE
-0.3010 SIDESHELF AND DELIVER
-0.3010 SIDESHELF BUT SOMEWHERE
-0.3010 SIDESHELF, LOCATE THE
-0.3010 SINCE JANUARY 7,
-0.7782 SINK AND LEAD
-0.7782 SINK AND PUT
-0.7782 SINK AND TAKE
-0.3010 SINK BUT SOMEWHERE
-1.0000 SINK TO DESK,
-0.3979 SINK TO THE
-0.3010 SINK, BUT HE
-0.3010 SINK, COME AFTER
-0.4771 SINK, FOLLOW HER,
-0.7782 SINK, FOLLOW HIM,
-0.3010 SINK, LOCATE THE
-1.2553 SINK, MEET ALEX,
-1.2553 SINK, MEET BARBARA,
-1.2553 SINK, MEET BRIAN,
-1.2553 SINK, MEET ERIK,
-1.2553 SINK, MEET HANNA,
-0.9542 SINK, MEET KEN,
-0.9542 SINK, MEET THE
-0.3010 SINK, YOU CAN
-0.3010 SITTING PERSON IN
-0.3010 SKYLER AND ESCORT
-0.3010 SKYLER AT THE
-0.3010 SKYLER FROM THE
-0.3010 SKYLER IN THE
-0.3010 SKYLER MUST BE
-0.3010 SKYLER OUTSIDE THE
-0.3010 SKYLER TO THE
-0.9031 SKYLER, AND ANSWER
-0.6021 SKYLER, AND COME
-0.9031 SKYLER, AND ESCORT
-0.3010 SNACKS FROM THE
-0.3010 SNACKS IN THE
-0.3010 SNACKS ON THE
-0.3010 SNACKS THERE ARE
-0.3010 SOAP FROM THE
-0.3010 SOAP IN THE
-0.3010 SOAP ON THE
-0.3010 SOAP THERE ARE
-0.3010 SOAP TO THE
-0.6021 SOAP, AND DELIVER
-0.6021 SOAP, AND PLACE
-0.3010 SOCIAL STANDARD PLATFORM
-0.3010 SOFTBANK ROBOTICS PEPPER
-0.3010 SOME CEREALS INTO
-0.3010 SOMEONE IN THE
-0.3979 SOMEONE, AND ANSWER
-1.0000 SOMEONE, AND TELL
-0.3010 SOMETHING ABOUT YOURSELF
-0.3010 SOMEWHERE ELSE IN
-0.3010 SOPHIE AND ESCORT
-0.3010 SOPHIE AT THE
-0.3010 SOPHIE FROM THE
-0.3010 SOPHIE IN THE
-0.3010 SOPHIE MUST BE
-0.3010 SOPHIE OUTSIDE THE
-0.3010 SOPHIE, AND ANSWER
-1.0000 STAND AND ACCOMPANY
-1.0000 STAND AND GIVE
-1.0000 STAND AND GO
-1.0000 STAND AND LEAD
-1.0000 STAND AND PUT
-0.3010 STAND BUT SOMEWHERE
-0.3010 STAND THE TEA
-1.3010 STAND TO BED,
-1.3010 STAND TO DINING
-1.3010 STAND TO LIVING
-0.4559 STAND TO THE
-0.3010 STAND, BUT HE
-0.3010 STAND, FOLLOW HIM,
-0.3010 STAND, GO AFTER
-0.3010 STAND, LOOK FOR
-1.2553 STAND, MEET BARBARA,
-1.2553 STAND, MEET HANNA,
-0.9542 STAND, MEET MICHAEL,
-1.2553 STAND, MEET SAMANTHA,
-1.2553 STAND, MEET SKYLER,
-1.2553 STAND, MEET THE
-0.9542 STAND, MEET THOMAS,
-0.3010 STAND, YOU MAY
-0.3010 STANDARD DEFINED FOR
-0.3010 STANDARD PLATFORM LEAGUE
-0.3010 STANDING PERSON IN
-0.3010 SUPPORT ROBOT </s>
-0.3010 SUSHI FROM THE
-0.3010 SUSHI TO THE
-1.1139 TABLE AND ACCOMPANY
-0.8129 TABLE AND DELIVER
-1.4150 TABLE AND GO
-1.4150 TABLE AND LEAD
-1.4150 TABLE AND PLACE
-0.9379 TABLE AND PUT
-1.4150 TABLE AND TAKE
-0.3010 TABLE BUT SOMEWHERE
-0.3010 TABLE THE TEA
-1.1461 TABLE TO BED,
-1.1461 TABLE TO SINK,
-0.4472 TABLE TO THE
-0.3010 TABLE, BUT HE
-0.3010 TABLE, COME AFTER
-0.3010 TABLE, FIND THE
-0.6021 TABLE, FOLLOW HER,
-0.6021 TABLE, FOLLOW HIM,
-0.3010 TABLE, GO AFTER
-0.3010 TABLE, LOCATE THE
-1.2041 TABLE, MEET ALEX,
-1.2041 TABLE, MEET BARBARA,
-1.0280 TABLE, MEET CHARLIE,
-1.5051 TABLE, MEET ERIKA,
-1.5051 TABLE, MEET HANNA,
-1.5051 TABLE, MEET KEN,
-1.5051 TABLE, MEET SAMANTHA,
-1.5051 TABLE, MEET SAMUEL,
-1.5051 TABLE, MEET SKYLER,
-1.2041 TABLE, MEET THE
-1.5051 TABLE, MEET THOMAS,
-0.3010 TABLE, YOU WILL
-0.3010 TAKE BARBARA TO
-0.3010 TAKE BRIAN FROM
-0.3010 TAKE ERIKA FROM
-0.9031 TAKE HER </s>
-0.9031 TAKE HER BACK
-0.6021 TAKE HER TO
-0.9031 TAKE HIM </s>
-0.7270 TAKE HIM BACK
-0.7270 TAKE HIM TO
-0.3010 TAKE JACKIE TO
-0.3010 TAKE KEN FROM
-1.6232 TAKE THE APPLE
-1.6232 TAKE THE BOWL
-1.6232 TAKE THE CANDIES
-1.3222 TAKE THE COKE
-1.3222 TAKE THE MANJU
-1.1461 TAKE THE MINTS
-1.3222 TAKE THE PAPRIKA
-1.6232 TAKE THE PEANUTS
-1.6232 TAKE THE PRINGLES
-1.6232 TAKE THE SENBEI
-1.6232 TAKE THE SOAP
-1.3222 TAKE THE TEA
-1.1461 TAKE THE TRAY
-1.0792 TAKEN FROM BED
-1.0792 TAKEN FROM CABINET
-1.0792 TAKEN FROM DINING
-1.0792 TAKEN FROM LIVING
-1.3802 TAKEN FROM SINK
-0.9031 TAKEN FROM TV
-0.3010 TEA FROM THE
-0.3010 TEA IN THE
-0.3010 TEA ON THE
-0.3010 TEA THERE ARE
-0.4771 TEAM'S AFFILIATION </s>
-0.7782 TEAM'S AFFILIATION TO
-0.3010 TEAM'S COUNTRY </s>
-0.3010 TEAM'S NAME </s>
-0.6339 TELL ME HOW
-0.7056 TELL ME THE
-1.3424 TELL ME WHAT'S
-1.5977 TELL ME WHICH
-0.3010 TELL SOMETHING ABOUT
-0.5441 TELL THE DAY
-0.6690 TELL THE TIME
-0.3010 TELL WHAT DAY
-0.3010 TELL YOUR TEAM'S
-0.3010 TERM COMPUTER BUG
-0.3010 TERM FOR ORNAMENTAL
-0.3010 THANK YOU </s>
-1.1461 THE APPLE </s>
-0.6021 THE APPLE FROM
-0.9700 THE APPLE ON
-1.1461 THE APPLE TO
-0.3010 THE APPLE, AND
-0.3010 THE ARENA </s>
-0.3010 THE B PROGRAMMING
-0.3900 THE BAR </s>
-1.2553 THE BAR AND
-1.4314 THE BAR TO
-0.4472 THE BATHROOM </s>
-1.0212 THE BATHROOM AND
-1.3222 THE BATHROOM TO
-0.4379 THE BED </s>
-1.2672 THE BED AND
-1.8692 THE BED BUT
-1.8692 THE BED THE
-1.2672 THE BED TO
-0.9700 THE BED, FOLLOW
-0.8451 THE BED, GO
-0.6690 THE BED, MEET
-1.4472 THE BED, YOU
-0.3647 THE BEDROOM </s>
-1.1663 THE BEDROOM AND
-0.6021 THE BEDROOM, FIND
-0.6021 THE BEDROOM, LOCATE
-0.3802 THE BEDSIDE </s>
-1.0792 THE BEDSIDE AND
-0.4771 THE BEDSIDE, FIND
-0.7782 THE BEDSIDE, LOCATE
-1.1461 THE BEER </s>
-1.1461 THE BEER FROM
-0.6690 THE BEER IN
-1.1461 THE BEER ON
-1.1461 THE BEER TO
-0.3010 THE BEER, AND
-0.7782 THE BIGGEST FOOD
-0.4771 THE BIGGEST OBJECT
-0.4102 THE BOOKCASE </s>
-0.9542 THE BOOKCASE BUT
-0.6021 THE BOWL </s>
-0.9700 THE BOWL IN
-0.8451 THE BOWL THE
-0.3010 THE C PROGRAMMING
-0.4037 THE CABINET </s>
-1.5798 THE CABINET AND
-1.8808 THE CABINET BUT
-1.1818 THE CABINET TO
-1.4771 THE CABINET, COME
-1.4771 THE CABINET, FOLLOW
-1.4771 THE CABINET, GO
-1.1761 THE CABINET, LOCATE
-1.4771 THE CABINET, LOOK
-0.5229 THE CABINET, MEET
-1.3424 THE CANDIES FROM
-0.3424 THE CANDIES IN
-0.3388 THE CENTER TABLE
-1.3802 THE CENTER TABLE,
-0.6021 THE CHOCOLATE BAR
-0.6021 THE CHOCOLATE EGG
-1.0792 THE CLOTH </s>
-1.3802 THE CLOTH FROM
-0.6021 THE CLOTH IN
-0.9031 THE CLOTH THE
-1.5563 THE COKE </s>
-0.6532 THE COKE FROM
-1.0792 THE COKE IN
-1.2553 THE COKE ON
-0.9542 THE COKE TO
-0.3010 THE COKE, AND
-0.3010 THE CONTAINERS IN
-0.3010 THE CONTAINERS, AND
-0.3748 THE CORRIDOR </s>
-1.1072 THE CORRIDOR AND
-0.9031 THE CORRIDOR, FIND
-0.6021 THE CORRIDOR, LOCATE
-0.9031 THE CORRIDOR, LOOK
-0.3388 THE COUNTER </s>
-1.3802 THE COUNTER BUT
-0.6021 THE COUNTER, FIND
-0.6021 THE COUNTER, LOOK
-0.3724 THE CUPBOARD </s>
-1.8195 THE CUPBOARD AND
-1.3424 THE CUPBOARD BUT
-1.8195 THE CUPBOARD TO
-0.4771 THE CUPBOARD, LOCATE
-0.7782 THE CUPBOARD, LOOK
-0.3010 THE DAY OF
-0.4197 THE DESK </s>
-1.3617 THE DESK AND
-1.6628 THE DESK BUT
-1.2648 THE DESK TO
-1.0000 THE DESK, COME
-1.0000 THE DESK, FOLLOW
-1.3010 THE DESK, LOCATE
-1.3010 THE DESK, LOOK
-0.6990 THE DESK, MEET
-0.4011 THE DINING TABLE
-0.9874 THE DINING TABLE,
-0.3010 THE DOMESTIC STANDARD
-0.3802 THE DRAWER </s>
-1.0792 THE DRAWER AND
-0.9031 THE DRAWER, FIND
-0.6021 THE DRAWER, LOCATE
-0.9031 THE DRAWER, LOOK
-1.0792 THE DRINKS FROM
-0.3802 THE DRINKS IN
-0.3010 THE DRINKS, AND
-0.6021 THE EMPEROR IN
-0.6021 THE EMPEROR OF
-0.7782 THE FLAKES FROM
-0.4771 THE FLAKES TO
-0.3010 THE FOOD IN
-0.3590 THE FRIDGE </s>
-1.2041 THE FRIDGE AND
-0.3010 THE FRIDGE, LOCATE
-0.3010 THE GENDER OF
-0.3010 THE GLASS FROM
-0.6690 THE HEAVIEST CANDIES
-0.5441 THE HEAVIEST OBJECT
-0.3010 THE HIGHEST POINT
-0.3010 THE JAPAN? </s>
-0.3010 THE JAPANESE TERM
-0.3367 THE KITCHEN </s>
-1.5798 THE KITCHEN AND
-1.8808 THE KITCHEN ARE
-0.6021 THE LARGEST OBJECT
-0.9031 THE LARGEST SNACKS
-0.9031 THE LARGEST TOILETRIES
-0.5229 THE LEFT MOST
-0.6990 THE LEFT OF
-0.7782 THE LIGHTEST CANDIES
-0.7782 THE LIGHTEST DRINKS
-0.7782 THE LIGHTEST SNACKS
-0.8893 THE LIVING ROOM
-1.9173 THE LIVING ROOM,
-1.2805 THE LIVING SHELF
-0.6463 THE LIVING TABLE
-1.0934 THE LIVING TABLE,
-1.4150 THE MANJU </s>
-0.9379 THE MANJU FROM
-0.8129 THE MANJU IN
-0.7160 THE MANJU TO
-0.3010 THE MANJU, AND
-0.6990 THE MELON </s>
-0.5229 THE MELON FROM
-1.3222 THE MINTS </s>
-0.5093 THE MINTS FROM
-1.1461 THE MINTS IN
-1.6232 THE MINTS ON
-1.3222 THE MINTS TO
-0.3010 THE MINTS, AND
-0.6021 THE MONTH </s>
-0.6021 THE MONTH TO
-0.3010 THE MUG FROM
-0.3010 THE NAME OF
-0.5441 THE NOODLES FROM
-1.1461 THE NOODLES IN
-0.8451 THE NOODLES TO
-0.3010 THE NOODLES, AND
-1.2041 THE OBJECT ABOVE
-0.9031 THE OBJECT AT
-1.2041 THE OBJECT BEHIND
-0.6021 THE OBJECT ON
-0.3358 THE OFFICE </s>
-1.5911 THE OFFICE AND
-1.8921 THE OFFICE ARE
-0.7782 THE OFFICE, FIND
-1.0792 THE OFFICE, LOCATE
-0.6021 THE OFFICE, LOOK
-0.3010 THE OPEN PLATFORM
-1.2553 THE PAPRIKA </s>
-0.7112 THE PAPRIKA FROM
-1.0792 THE PAPRIKA IN
-1.2553 THE PAPRIKA ON
-0.9542 THE PAPRIKA TO
-0.3010 THE PAPRIKA, AND
-1.3010 THE PEANUTS </s>
-0.8239 THE PEANUTS FROM
-0.8239 THE PEANUTS IN
-0.8239 THE PEANUTS TO
-0.3010 THE PEANUTS, AND
-0.8671 THE PERSON AT
-0.5863 THE PERSON BEING
-0.9791 THE PERSON IN
-0.6021 THE POINTING LEFT
-0.6021 THE POINTING RIGHT
-0.3010 THE POSE OF
-0.6990 THE PRINGLES FROM
-0.6990 THE PRINGLES IN
-1.0000 THE PRINGLES TO
-0.3010 THE PRINGLES, AND
-0.3010 THE REFEREE BEFORE
-0.3010 THE RIGHT MOST
-0.4260 THE RISING LEFT
-0.9031 THE RISING RIGHT
-0.3010 THE ROBOT MUST
-0.3010 THE ROOM </s>
-0.3010 THE SAME ROOM
-0.3010 THE SENBEI FROM
-0.3632 THE SIDESHELF </s>
-1.4771 THE SIDESHELF AND
-1.4771 THE SIDESHELF BUT
-0.3010 THE SIDESHELF, LOCATE
-0.4184 THE SINK </s>
-1.4037 THE SINK AND
-1.5798 THE SINK BUT
-1.2788 THE SINK TO
-1.2304 THE SINK, COME
-1.0544 THE SINK, FOLLOW
-1.5315 THE SINK, LOCATE
-0.5772 THE SINK, MEET
-1.2304 THE SINK, YOU
-0.3010 THE SNACKS IN
-0.5563 THE SOAP FROM
-1.2553 THE SOAP IN
-1.2553 THE SOAP ON
-0.9542 THE SOAP TO
-0.3010 THE SOAP, AND
-0.3010 THE SOCIAL STANDARD
-0.3010 THE SOFTBANK ROBOTICS
-0.7782 THE SUSHI FROM
-0.4771 THE SUSHI TO
-1.2304 THE TEA </s>
-0.6864 THE TEA FROM
-0.7533 THE TEA IN
-1.2304 THE TEA ON
-0.3010 THE TERM COMPUTER
-0.7782 THE THINNEST CANDIES
-0.7782 THE THINNEST FOOD
-0.7782 THE THINNEST OBJECT
-1.0000 THE THREE BIGGEST
-1.0000 THE THREE HEAVIEST
-1.0000 THE THREE LARGEST
-0.6990 THE THREE LIGHTEST
-1.0000 THE TIME </s>
-0.3979 THE TIME TO
-0.3010 THE TOILETRIES IN
-0.3010 THE TOYOTA HUMAN
-0.9542 THE TRAY IN
-0.4102 THE TRAY THE
-0.4239 THE TV STAND
-0.9094 THE TV STAND,
-0.3010 THE WAVING PERSON
-0.4771 THE WEEK </s>
-0.7782 THE WEEK TO
-0.3010 THERE ARE ON
-0.3010 THERE IS NO
-0.3010 THINNEST CANDIES ON
-0.3010 THINNEST FOOD ON
-0.3010 THINNEST OBJECT FROM
-0.3010 THIS COMMAND IS
-0.3010 THOMAS AT THE
-0.3010 THOMAS FROM THE
-0.3010 THOMAS IS AT
-0.3010 THOMAS TO THE
-0.9031 THOMAS, AND ACCOMPANY
-0.9031 THOMAS, AND ANSWER
-0.9031 THOMAS, AND COME
-0.9031 THOMAS, AND GO
-0.3010 THOMPSON AND DENNIS
-0.3010 THREE BIGGEST OBJECTS
-0.3010 THREE CANDIES IN
-0.3010 THREE CONTAINERS IN
-0.3010 THREE HEAVIEST OBJECTS
-0.3010 THREE LARGEST OBJECTS
-0.6021 THREE LIGHTEST FOOD
-0.6021 THREE LIGHTEST OBJECTS
-0.3010 THREE SNACKS IN
-0.3010 THREE TOILETRIES IN
-0.3010 TIME IS IT?
-0.9031 TIME TO BARBARA
-0.9031 TIME TO EDWARD
-0.9031 TIME TO THE
-0.9031 TIME TO THOMAS
-1.0000 TO ALEX </s>
-0.3979 TO ALEX AT
-0.3010 TO BAR WITH
-0.3010 TO BARBARA AT
-0.3010 TO BED, BUT
-0.3010 TO BEDROOM BUST
-0.3010 TO BEDSIDE WITH
-0.3010 TO BRIAN AT
-0.3010 TO CHARLIE AT
-0.3010 TO DESK, BUT
-0.3010 TO DINING TABLE,
-0.3010 TO EDWARD AT
-0.3010 TO ERIKA AT
-0.3010 TO HANNA AT
-0.3010 TO JACKIE AT
-0.3010 TO KEN AT
-0.3010 TO KITCHEN BUST
-0.6021 TO LIVING ROOM
-0.6021 TO LIVING TABLE,
-0.3010 TO ME </s>
-0.3010 TO MICHAEL AT
-0.3010 TO OFFICE BUST
-0.3010 TO SAMANTHA AT
-0.3010 TO SAMUEL AT
-0.3010 TO SINK, BUT
-0.3010 TO SKYLER AT
-1.8841 TO THE BAR
-1.7292 TO THE BATHROOM
-1.7292 TO THE BED
-1.8841 TO THE BED,
-1.6878 TO THE BEDROOM
-2.1271 TO THE BEDROOM,
-2.4281 TO THE BEDSIDE
-2.2520 TO THE BEDSIDE,
-2.7292 TO THE BOOKCASE
-1.6500 TO THE CABINET
-1.6500 TO THE CABINET,
-2.2520 TO THE CENTER
-1.7292 TO THE CORRIDOR
-2.1271 TO THE CORRIDOR,
-2.2520 TO THE COUNTER
-2.4281 TO THE COUNTER,
-2.1271 TO THE CUPBOARD
-2.2520 TO THE CUPBOARD,
-1.8261 TO THE DESK
-1.9510 TO THE DESK,
-1.4739 TO THE DINING
-2.4281 TO THE DRAWER
-2.1271 TO THE DRAWER,
-2.4281 TO THE FRIDGE
-2.4281 TO THE FRIDGE,
-1.7292 TO THE KITCHEN
-1.1494 TO THE LIVING
-1.6152 TO THE OFFICE
-1.9510 TO THE OFFICE,
-2.4281 TO THE POINTING
-2.1271 TO THE RISING
-2.7292 TO THE SIDESHELF
-2.7292 TO THE SIDESHELF,
-1.7749 TO THE SINK
-1.6500 TO THE SINK,
-1.4069 TO THE TV
-2.7292 TO THE WAVING
-0.3010 TO THOMAS AT
-0.3010 TO TV STAND,
-0.3010 TOILETRIES FROM THE
-0.3010 TOILETRIES IN THE
-0.3010 TOP OF THE
-0.3010 TOYOTA HUMAN SUPPORT
-0.3010 TRAPPED IN A
-0.3010 TRAY IN THE
-1.1461 TRAY THE FLAKES
-1.1461 TRAY THE MANJU
-1.1461 TRAY THE MINTS
-0.5441 TRAY THE SUSHI
-0.3010 TRAY THERE ARE
-0.4559 TV STAND </s>
-1.3802 TV STAND AND
-1.7782 TV STAND BUT
-2.0792 TV STAND THE
-1.0792 TV STAND TO
-1.5563 TV STAND, BUT
-1.2553 TV STAND, FOLLOW
-0.9542 TV STAND, GO
-1.5563 TV STAND, LOOK
-0.6021 TV STAND, MEET
-1.5563 TV STAND, YOU
-1.5563 UP THE APPLE
-1.2553 UP THE COKE
-1.5563 UP THE MANJU
-1.0792 UP THE MINTS
-0.9542 UP THE NOODLES
-1.2553 UP THE PAPRIKA
-1.2553 UP THE PEANUTS
-1.5563 UP THE SOAP
-1.5563 UP THE TEA
-1.5563 UP THE TRAY
-0.3010 USED IN THE
-0.6021 WAS DEVELOPED AFTER
-0.6021 WAS DEVELOPED CIRCA
-0.3010 WAS INVENTED THE
-0.3010 WAVING PERSON IN
-0.3010 WEEK TO BARBARA
-0.3010 WHAT DAY IS
-0.9031 WHAT IS A
-0.4260 WHAT IS THE
-0.3010 WHAT TIME IS
-1.0000 WHAT'S THE BIGGEST
-1.0000 WHAT'S THE HEAVIEST
-1.0000 WHAT'S THE LARGEST
-1.3010 WHAT'S THE LIGHTEST
-1.3010 WHAT'S THE NAME
-1.0000 WHAT'S THE THINNEST
-0.3010 WHEN INDICATED BY
-0.3010 WHEN WAS INVENTED
-0.3010 WHERE DOES THE
-0.3010 WHICH ARE THE
-0.3010 WHICH CITY WILL
-0.3010 WHICH REACHES 3776M
-0.3010 WHICH ROBOT IS
-0.3010 WHO INVENTED THE
-0.3010 WHO IS THE
-0.3010 WILL FIND HIM
-0.3010 WILL GET LOST
-0.3010 WILL NEXT YEAR'S
-0.3010 WITH A MOVABLE
-0.3010 WITH ERIKA </s>
-0.3010 WITH HANNA </s>
-0.3010 WITH JACKIE </s>
-0.3010 WITH SAMANTHA </s>
-0.3010 WITH SAMUEL </s>
-0.3010 WITH SKYLER </s>
-0.6021 WOMAN, AND ANSWER
-0.6021 WOMAN, AND TELL
-0.3010 YEAR'S ROBOCUP BE
-0.6021 YOU ACCOMPANY ERIK
-0.6021 YOU ACCOMPANY MICHAEL
-0.3010 YOU BRING ME
-0.3010 YOU CAN FIND
-0.3010 YOU DELIVER CONTAINERS
-0.3010 YOU FIND THE
-0.3010 YOU FOLLOW THOMAS
-0.3010 YOU GIVE ME
-0.3010 YOU HAVE DREAMS?
-0.3010 YOU LOOK FOR
-0.3010 YOU MAY FIND
-0.9031 YOU MEET BARBARA
-0.9031 YOU MEET MICHAEL
-0.6021 YOU MEET SAMUEL
-0.3010 YOU NAVIGATE TO
-1.6628 YOU PLEASE BRING
-1.6628 YOU PLEASE FOLLOW
-1.6628 YOU PLEASE GIVE
-1.6628 YOU PLEASE GO
-1.3617 YOU PLEASE GRASP
-1.6628 YOU PLEASE GUIDE
-1.6628 YOU PLEASE LOOK
-0.6628 YOU PLEASE MEET
-1.6628 YOU PLEASE NAVIGATE
-1.6628 YOU PLEASE PUT
-1.6628 YOU PLEASE TAKE
-1.3617 YOU PLEASE TELL
-0.3010 YOU POUR SOME
-0.3010 YOU WILL FIND
-0.6021 YOUR TEAM'S AFFILIATION
-0.7782 YOUR TEAM'S COUNTRY
-1.0792 YOUR TEAM'S NAME
-0.3010 YOUR TEAM? </s>
-0.3010 YOURSELF TO THOMAS
-0.3010 ﻿MEET SAMUEL AT

\end\
