<?xml version="1.0"?>
<opencv_storage>
<opencv_ml_svm>
  <format>3</format>
  <svmType>C_SVC</svmType>
  <kernel>
    <type>RBF</type>
    <gamma>3.3750000000000002e-02</gamma></kernel>
  <C>2.5000000000000000e+00</C>
  <term_criteria><epsilon>1.1920928955078125e-07</epsilon>
    <iterations>1000</iterations></term_criteria>
  <var_count>6</var_count>
  <class_count>2</class_count>
  <class_labels type_id="opencv-matrix">
    <rows>2</rows>
    <cols>1</cols>
    <dt>i</dt>
    <data>
      -1 1</data></class_labels>
  <sv_total>143</sv_total>
  <support_vectors>
    <_>
      2.24215660e+01 1.14518311e+02 2.57714825e+01 9.52241898e+01
      2.18995476e+00 -1.11545503e-01</_>
    <_>
      2.38055477e+01 1.39121353e+02 2.08441048e+01 7.82411041e+01
      2.89438558e+00 -7.41859138e-01</_>
    <_>
      2.66516323e+01 1.35396362e+02 2.58621941e+01 8.88445129e+01
      2.09937620e+00 -5.32346249e-01</_>
    <_>
      2.60109043e+01 1.39198242e+02 2.09567051e+01 7.41257935e+01
      2.68343115e+00 -7.36255109e-01</_>
    <_>
      2.44495144e+01 1.59397751e+02 2.32159081e+01 9.27268677e+01
      2.63329363e+00 -8.56200099e-01</_>
    <_>
      2.46070213e+01 1.45538086e+02 2.13860626e+01 7.54840164e+01
      3.02275062e+00 -8.79362643e-01</_>
    <_>
      2.57711411e+01 1.29584763e+02 2.04259071e+01 8.02693787e+01
      1.99785626e+00 -6.40161455e-01</_>
    <_>
      2.64687099e+01 1.30207123e+02 2.03871117e+01 7.34470444e+01
      2.22346282e+00 -7.22034872e-01</_>
    <_>
      2.22375336e+01 1.40766205e+02 2.46810436e+01 9.77546616e+01
      2.58023357e+00 -5.45683146e-01</_>
    <_>
      2.45619431e+01 1.31983139e+02 2.07899475e+01 8.38249054e+01
      2.05831599e+00 -6.18345439e-01</_>
    <_>
      2.53748932e+01 1.58266785e+02 1.76578751e+01 6.60318604e+01
      3.44861078e+00 -1.22077465e+00</_>
    <_>
      2.37475491e+01 1.58726990e+02 2.22262154e+01 9.34341049e+01
      2.66551995e+00 -8.39290261e-01</_>
    <_>
      2.45955162e+01 1.35962433e+02 2.24242954e+01 8.67059174e+01
      2.20110250e+00 -6.19349301e-01</_>
    <_>
      2.68682938e+01 1.35879837e+02 1.91750069e+01 7.70599136e+01
      1.85454214e+00 -8.07604730e-01</_>
    <_>
      2.72825031e+01 1.42324295e+02 2.77580700e+01 8.94364624e+01
      2.14024043e+00 -6.04208887e-01</_>
    <_>
      2.35634804e+01 1.15603828e+02 2.33300743e+01 8.49264679e+01
      2.16560388e+00 -2.77045816e-01</_>
    <_>
      2.60119724e+01 1.23295921e+02 2.35370579e+01 8.70789108e+01
      1.80801773e+00 -3.95851493e-01</_>
    <_>
      2.45868053e+01 1.30979019e+02 2.40556660e+01 9.28225250e+01
      2.05118823e+00 -4.27292496e-01</_>
    <_>
      2.60492096e+01 1.36598801e+02 2.37604942e+01 9.00647125e+01
      2.00887132e+00 -5.50486803e-01</_>
    <_>
      2.52572651e+01 1.64355560e+02 2.05973206e+01 8.58907471e+01
      2.58456445e+00 -1.07746661e+00</_>
    <_>
      2.69185028e+01 1.38216705e+02 2.40722752e+01 8.43712997e+01
      2.16482711e+00 -6.19430840e-01</_>
    <_>
      2.71438446e+01 1.26398026e+02 2.34762325e+01 8.44847717e+01
      1.82291639e+00 -4.95633036e-01</_>
    <_>
      2.50136223e+01 1.19005165e+02 2.54214592e+01 8.81685867e+01
      2.07147121e+00 -2.60506600e-01</_>
    <_>
      2.53931484e+01 1.21385658e+02 2.53153706e+01 8.71048050e+01
      2.12666440e+00 -3.15278113e-01</_>
    <_>
      2.32133083e+01 1.53562347e+02 1.67561169e+01 6.69348297e+01
      3.61592531e+00 -1.18726897e+00</_>
    <_>
      2.55460682e+01 1.26302628e+02 2.05658207e+01 7.51697998e+01
      2.22969031e+00 -6.21481001e-01</_>
    <_>
      2.62446308e+01 1.57704468e+02 2.04699059e+01 6.91960449e+01
      3.17663264e+00 -1.14034832e+00</_>
    <_>
      2.45080795e+01 1.17219673e+02 2.42947025e+01 8.98396759e+01
      1.93354738e+00 -2.44343519e-01</_>
    <_>
      2.76591129e+01 1.35786316e+02 2.27708359e+01 8.03004150e+01
      2.10164475e+00 -6.70633018e-01</_>
    <_>
      2.68652058e+01 1.43200912e+02 2.24843655e+01 8.64787903e+01
      2.00793433e+00 -6.95488691e-01</_>
    <_>
      2.36790295e+01 1.50144699e+02 2.35273495e+01 9.84835129e+01
      2.38960004e+00 -6.66533113e-01</_>
    <_>
      2.38696194e+01 1.30368179e+02 2.24432125e+01 8.96822205e+01
      2.07728744e+00 -5.28273523e-01</_>
    <_>
      2.78679142e+01 1.31413010e+02 2.12758904e+01 7.88146133e+01
      1.74955046e+00 -6.86907947e-01</_>
    <_>
      2.55966816e+01 1.33405029e+02 2.77921658e+01 9.35288010e+01
      2.16214752e+00 -4.32561576e-01</_>
    <_>
      2.35015297e+01 1.24703377e+02 2.45368252e+01 9.53566666e+01
      2.04305053e+00 -3.12267691e-01</_>
    <_>
      2.40401573e+01 1.62261490e+02 2.22947693e+01 9.17451706e+01
      2.72608614e+00 -9.15757358e-01</_>
    <_>
      2.70468845e+01 1.44304901e+02 2.61921921e+01 8.69391785e+01
      2.24653912e+00 -6.78464890e-01</_>
    <_>
      2.24833889e+01 1.54036743e+02 2.07192745e+01 8.93856583e+01
      2.79954791e+00 -8.62035155e-01</_>
    <_>
      2.40588875e+01 1.28596512e+02 2.45549507e+01 9.40147400e+01
      2.12147355e+00 -3.63889009e-01</_>
    <_>
      2.41828327e+01 1.48948380e+02 1.98930569e+01 7.61661911e+01
      3.03131151e+00 -9.40362096e-01</_>
    <_>
      2.48025475e+01 1.21761597e+02 2.14103489e+01 7.80651474e+01
      2.17619443e+00 -5.06295145e-01</_>
    <_>
      2.35836220e+01 1.57122498e+02 2.07272491e+01 8.92393036e+01
      2.69539332e+00 -9.18626010e-01</_>
    <_>
      2.15628281e+01 1.40305450e+02 2.21637516e+01 9.64215012e+01
      2.65137553e+00 -5.61233580e-01</_>
    <_>
      2.36239777e+01 1.20559677e+02 2.72984085e+01 9.68934860e+01
      2.13484097e+00 -1.82929829e-01</_>
    <_>
      2.53873653e+01 1.22616325e+02 2.37820339e+01 8.47768097e+01
      2.10662627e+00 -3.81763428e-01</_>
    <_>
      2.32867756e+01 1.27504005e+02 2.22337399e+01 9.04420319e+01
      2.03100705e+00 -4.73738313e-01</_>
    <_>
      2.54631634e+01 1.69041183e+02 1.80935745e+01 5.38592644e+01
      4.20890617e+00 -1.29532135e+00</_>
    <_>
      2.44384937e+01 1.48613556e+02 1.93611412e+01 7.43053665e+01
      3.09751034e+00 -9.61580753e-01</_>
    <_>
      2.61641235e+01 1.31963226e+02 1.96245365e+01 7.35732574e+01
      2.29014826e+00 -6.60569131e-01</_>
    <_>
      2.34341373e+01 1.54699341e+02 2.29802876e+01 9.56428528e+01
      2.65093303e+00 -7.50059426e-01</_>
    <_>
      2.46357899e+01 1.33452759e+02 2.35794907e+01 8.40398788e+01
      2.47196078e+00 -5.29270232e-01</_>
    <_>
      2.49584751e+01 1.04943878e+02 2.41224365e+01 7.82019882e+01
      2.26114607e+00 6.59460351e-02</_>
    <_>
      0. 0. 0. 0. 0. 0.</_>
    <_>
      2.64194641e+01 1.43915405e+02 2.30069065e+01 8.36662903e+01
      2.24821210e+00 -7.60858059e-01</_>
    <_>
      2.42697144e+01 1.19120148e+02 2.18889904e+01 8.10367432e+01
      2.10788178e+00 -4.13691729e-01</_>
    <_>
      2.50066967e+01 1.28088501e+02 2.77348309e+01 9.59680176e+01
      2.10042429e+00 -3.15173894e-01</_>
    <_>
      2.50549812e+01 1.39302368e+02 2.11186943e+01 8.39256134e+01
      2.17225385e+00 -7.14865565e-01</_>
    <_>
      2.50884800e+01 1.65382523e+02 2.13684044e+01 8.96339417e+01
      2.54797602e+00 -1.00240993e+00</_>
    <_>
      2.60108566e+01 1.43997971e+02 1.97389793e+01 7.10313263e+01
      2.86479640e+00 -8.55983436e-01</_>
    <_>
      2.20260429e+01 1.47335114e+02 2.06398697e+01 9.36823120e+01
      2.59844232e+00 -7.26403117e-01</_>
    <_>
      2.43450527e+01 1.20260170e+02 2.17148800e+01 8.45802460e+01
      1.99311388e+00 -3.58737588e-01</_>
    <_>
      2.76626797e+01 1.29883026e+02 2.50986729e+01 8.70351105e+01
      1.90136766e+00 -4.67601955e-01</_>
    <_>
      2.33921261e+01 1.55306244e+02 2.04382763e+01 8.43584900e+01
      2.92874408e+00 -9.51613128e-01</_>
    <_>
      2.36782494e+01 1.24288544e+02 2.69813175e+01 9.67493057e+01
      2.14145803e+00 -2.57324457e-01</_>
    <_>
      2.58831615e+01 1.69595306e+02 2.17306042e+01 8.50755692e+01
      2.69520140e+00 -1.10728717e+00</_>
    <_>
      2.51910610e+01 1.69863983e+02 1.51178865e+01 4.60477524e+01
      5.05769396e+00 -1.20955551e+00</_>
    <_>
      2.33563709e+01 1.15264542e+02 2.25298290e+01 8.39247055e+01
      2.13164163e+00 -2.94580877e-01</_>
    <_>
      2.30207520e+01 1.54201889e+02 2.02068920e+01 8.06857300e+01
      3.10292459e+00 -9.49385703e-01</_>
    <_>
      4.33546791e+01 1.05841843e+02 3.57192345e+01 9.20487213e+01
      3.47357869e-01 3.74277264e-01</_>
    <_>
      2.43033619e+01 1.32940170e+02 2.22419853e+01 8.83798904e+01
      2.07272387e+00 -5.78112662e-01</_>
    <_>
      2.51935959e+01 1.29638565e+02 1.90587330e+01 7.43989182e+01
      2.27016854e+00 -5.98156095e-01</_>
    <_>
      2.48021431e+01 1.19163101e+02 2.48842793e+01 8.72607269e+01
      2.11827040e+00 -2.83559203e-01</_>
    <_>
      2.37270470e+01 1.63747528e+02 1.74102287e+01 6.32799492e+01
      3.88153458e+00 -1.24220979e+00</_>
    <_>
      2.78041878e+01 1.06203239e+02 2.86030998e+01 8.68924637e+01
      1.92571521e+00 3.74742210e-01</_>
    <_>
      2.55349197e+01 9.13696594e+01 2.06904182e+01 8.40613098e+01
      2.20867705e+00 7.56025970e-01</_>
    <_>
      2.40150738e+01 1.05545067e+02 2.26303120e+01 8.34806442e+01
      2.65393806e+00 4.10236359e-01</_>
    <_>
      2.68501835e+01 9.86445236e+01 2.24423180e+01 7.41965790e+01
      2.04630303e+00 4.72913295e-01</_>
    <_>
      3.04371357e+01 1.14992767e+02 2.32431507e+01 7.39927216e+01
      2.25120759e+00 3.43862116e-01</_>
    <_>
      2.30190735e+01 9.59762115e+01 2.62665215e+01 9.39877777e+01
      2.36905313e+00 5.08694112e-01</_>
    <_>
      2.18856773e+01 7.65890198e+01 2.22230568e+01 8.68290787e+01
      2.39663339e+00 9.62557018e-01</_>
    <_>
      2.66001263e+01 1.05028519e+02 2.73262539e+01 9.47721786e+01
      2.15636063e+00 4.03936595e-01</_>
    <_>
      2.44455242e+01 9.22228775e+01 2.60435295e+01 8.41108627e+01
      2.00229454e+00 5.68093657e-01</_>
    <_>
      2.41782207e+01 1.01796951e+02 2.22531433e+01 9.10328903e+01
      2.44491148e+00 4.50381279e-01</_>
    <_>
      2.43833733e+01 1.10849876e+02 2.18578644e+01 8.51974564e+01
      2.63761330e+00 3.25262010e-01</_>
    <_>
      2.52652264e+01 1.10006836e+02 2.56290646e+01 9.38235779e+01
      2.38598251e+00 3.05962443e-01</_>
    <_>
      2.03185844e+01 8.57455292e+01 2.22044239e+01 8.16000900e+01
      2.69269514e+00 6.99824512e-01</_>
    <_>
      2.77686768e+01 9.76943893e+01 2.38710022e+01 8.04398270e+01
      2.36398625e+00 7.89785028e-01</_>
    <_>
      2.67382927e+01 1.11383698e+02 2.53584309e+01 9.29773407e+01
      2.37290764e+00 3.06860059e-01</_>
    <_>
      2.46631126e+01 8.49329376e+01 2.50959625e+01 8.55433350e+01
      1.85225010e+00 7.36284077e-01</_>
    <_>
      2.42415371e+01 8.23016968e+01 2.38274097e+01 8.87105637e+01
      2.32537603e+00 8.80456567e-01</_>
    <_>
      2.15831013e+01 8.42302017e+01 2.52960587e+01 8.54880142e+01
      2.51996756e+00 8.12067509e-01</_>
    <_>
      2.93981705e+01 1.10055649e+02 2.53828259e+01 7.93028717e+01
      2.04325581e+00 3.30178767e-01</_>
    <_>
      2.86249218e+01 1.04877472e+02 2.52401562e+01 7.78116379e+01
      2.13782167e+00 4.26703721e-01</_>
    <_>
      2.18496914e+01 9.63311081e+01 2.28656178e+01 9.11989670e+01
      2.59350991e+00 5.14560401e-01</_>
    <_>
      2.63341885e+01 9.82303619e+01 2.67157612e+01 8.26211624e+01
      2.02350616e+00 4.58789617e-01</_>
    <_>
      2.52936134e+01 8.73929214e+01 2.41859722e+01 8.42651291e+01
      1.81087554e+00 6.94323003e-01</_>
    <_>
      2.44787903e+01 9.93405457e+01 2.04678478e+01 7.86595917e+01
      2.61355758e+00 5.78548908e-01</_>
    <_>
      2.42901249e+01 8.22493668e+01 2.48278980e+01 8.43219223e+01
      1.86844194e+00 7.98469961e-01</_>
    <_>
      2.23044224e+01 8.20824661e+01 2.22035275e+01 8.83239975e+01
      2.47314501e+00 8.16928267e-01</_>
    <_>
      2.74038792e+01 1.20997513e+02 2.38791504e+01 8.52550125e+01
      2.65534973e+00 2.42646083e-01</_>
    <_>
      2.63526936e+01 9.50837936e+01 1.98452778e+01 7.78588257e+01
      2.30921960e+00 8.08369994e-01</_>
    <_>
      2.23585110e+01 1.02038368e+02 2.26188812e+01 8.52621460e+01
      2.68650007e+00 4.37516451e-01</_>
    <_>
      2.12633247e+01 8.80740662e+01 2.15409241e+01 7.89993210e+01
      2.77283978e+00 6.86768949e-01</_>
    <_>
      2.22851238e+01 9.08041153e+01 2.43310375e+01 9.34044876e+01
      2.37635946e+00 6.33514762e-01</_>
    <_>
      2.73191032e+01 1.01716660e+02 2.88412704e+01 8.65088654e+01
      1.94483840e+00 4.34045613e-01</_>
    <_>
      2.23930454e+01 8.35121841e+01 2.29185848e+01 7.95988235e+01
      2.43713164e+00 8.55651557e-01</_>
    <_>
      2.62739658e+01 1.04114693e+02 2.35891724e+01 7.81966934e+01
      2.10871315e+00 2.96985447e-01</_>
    <_>
      2.07235279e+01 7.19744110e+01 2.20277214e+01 8.17083740e+01
      2.50899363e+00 1.09083056e+00</_>
    <_>
      2.05559597e+01 7.48113098e+01 2.02933121e+01 7.96167450e+01
      2.47947288e+00 9.69269276e-01</_>
    <_>
      2.52695312e+01 8.60128326e+01 2.36097813e+01 8.31727219e+01
      1.87024391e+00 7.49068618e-01</_>
    <_>
      2.55018768e+01 9.44702835e+01 2.78902760e+01 8.60425873e+01
      1.94397438e+00 5.46896815e-01</_>
    <_>
      2.46766853e+01 8.85848694e+01 2.05401249e+01 8.39798889e+01
      2.24602556e+00 8.12787890e-01</_>
    <_>
      2.13347359e+01 7.92424316e+01 1.96075916e+01 7.98022308e+01
      2.59650135e+00 8.84969413e-01</_>
    <_>
      2.60331993e+01 1.15636192e+02 2.39966354e+01 8.66989975e+01
      2.56416416e+00 2.74457932e-01</_>
    <_>
      2.21750584e+01 8.60943604e+01 2.40200539e+01 9.20567398e+01
      2.41874456e+00 7.10186362e-01</_>
    <_>
      2.29234142e+01 8.86254196e+01 2.51616077e+01 8.49623108e+01
      2.48410678e+00 7.53543615e-01</_>
    <_>
      2.46068745e+01 7.86466141e+01 1.93505020e+01 7.95659943e+01
      2.06801891e+00 1.09810734e+00</_>
    <_>
      2.33219433e+01 9.79147339e+01 2.19493256e+01 8.19164505e+01
      2.66304517e+00 5.52764237e-01</_>
    <_>
      2.50862656e+01 1.14096886e+02 2.43772793e+01 8.80966339e+01
      2.57677937e+00 2.73071676e-01</_>
    <_>
      2.48492241e+01 1.08061554e+02 2.65442066e+01 9.51799469e+01
      2.35292459e+00 3.31816792e-01</_>
    <_>
      2.37044067e+01 8.78578033e+01 2.03579617e+01 7.91022263e+01
      2.45046043e+00 6.64736509e-01</_>
    <_>
      2.32630653e+01 1.01837120e+02 2.18853416e+01 8.29360962e+01
      2.60457277e+00 4.59426135e-01</_>
    <_>
      2.36818848e+01 1.04205208e+02 2.35334167e+01 9.22345047e+01
      2.55099607e+00 3.84874910e-01</_>
    <_>
      2.94763851e+01 1.09949944e+02 2.28066635e+01 7.26748810e+01
      2.32157063e+00 4.26991016e-01</_>
    <_>
      2.64654598e+01 9.70400162e+01 2.44044304e+01 7.53239059e+01
      2.07701373e+00 4.34292048e-01</_>
    <_>
      2.96871586e+01 1.09420334e+02 2.67662468e+01 8.18613358e+01
      1.97171152e+00 3.84016782e-01</_>
    <_>
      2.35095596e+01 9.41640472e+01 2.64477043e+01 9.34562378e+01
      2.29414558e+00 5.49443126e-01</_>
    <_>
      2.14822483e+01 9.26661453e+01 2.53788395e+01 9.21352921e+01
      2.46776509e+00 5.87727249e-01</_>
    <_>
      2.47484989e+01 9.19370651e+01 2.27697525e+01 7.46268387e+01
      2.00512719e+00 4.57191497e-01</_>
    <_>
      2.22954350e+01 9.28659897e+01 2.30777245e+01 8.16187286e+01
      2.68742299e+00 6.20218933e-01</_>
    <_>
      2.83155060e+01 1.07758507e+02 2.20561199e+01 7.50421448e+01
      2.11200404e+00 3.75289619e-01</_>
    <_>
      2.18441982e+01 9.00018463e+01 2.06994953e+01 7.86148682e+01
      2.62749028e+00 6.59574866e-01</_>
    <_>
      2.61734943e+01 9.70201874e+01 2.88757229e+01 8.69112015e+01
      2.02940989e+00 5.10730505e-01</_>
    <_>
      2.50680485e+01 8.56738663e+01 2.44811649e+01 8.98938141e+01
      2.30760765e+00 8.18530619e-01</_>
    <_>
      2.17404289e+01 9.94639130e+01 2.35651054e+01 8.72552872e+01
      2.66703677e+00 4.63494331e-01</_>
    <_>
      2.74216251e+01 1.01648216e+02 2.64686947e+01 8.21790237e+01
      2.01523638e+00 4.27897543e-01</_>
    <_>
      2.61253548e+01 1.18742096e+02 2.16949387e+01 8.36331940e+01
      2.71428108e+00 2.50935227e-01</_>
    <_>
      2.38162270e+01 7.88753281e+01 2.30690422e+01 8.72078171e+01
      2.30792141e+00 9.70771670e-01</_>
    <_>
      1.99319801e+01 8.24308853e+01 2.29080391e+01 8.20035629e+01
      2.69151950e+00 7.60121942e-01</_>
    <_>
      2.46131020e+01 9.95043182e+01 2.61254864e+01 9.46683273e+01
      2.32411265e+00 4.97613996e-01</_>
    <_>
      2.57100716e+01 1.03098671e+02 2.14159088e+01 7.53172989e+01
      2.03696108e+00 2.38824740e-01</_>
    <_>
      2.45883045e+01 9.44693375e+01 2.18030262e+01 8.73430786e+01
      2.44054985e+00 6.61460340e-01</_>
    <_>
      2.50325050e+01 8.19150314e+01 1.95796204e+01 8.12505417e+01
      2.20149684e+00 1.02751017e+00</_></support_vectors>
  <decision_functions>
    <_>
      <sv_count>143</sv_count>
      <rho>2.1453294695447428e-01</rho>
      <alpha>
        2.9311916635698754e-03 9.1350323506783945e-02
        1.3655442619698968e-01 2.5000000000000000e+00
        8.7383397258942758e-02 1.4467255211229171e-01
        3.8589838736435550e-01 2.0709142770904115e-01
        1.6020974651165149e-01 2.9145499519377915e-01
        1.4292554542092356e-01 2.3241584355917144e+00
        9.3881008076752773e-02 4.0463610615102996e-01
        4.9065116236487960e-01 1.0273201373489416e-01
        4.7810525306092488e-01 4.1938258499852582e-01
        3.3798369890969260e-01 6.2706598429521254e-01
        9.1501142587016054e-02 9.0554790382637018e-01
        2.1505630177604695e-01 4.5824690072603214e-01
        1.6899853824842420e-01 4.4627591232082853e-01
        4.0444835097316628e-01 5.4174048488323072e-02
        1.2762935701603468e-02 4.7651101837683335e-01
        1.8070987516734333e-02 8.8544657945571748e-01
        4.2701496740660161e-01 2.2782754289279572e-01
        3.1212256806583205e-01 1.8089646941628426e-01
        8.3224223125011501e-02 1.2838919951599567e-01
        7.0156889507770093e-01 5.8290697990904872e-01
        6.7596272123289045e-02 3.1325583184874189e-01
        6.5805332335757442e-03 3.0045480253308199e-01
        4.5464878003937914e-01 3.3022202067763506e-01
        1.7319777207101911e-01 2.2016628632459856e-01
        5.7699958852755018e-01 5.3886023796404914e-01
        4.1209046781032144e-01 1.9749813205965314e-01
        2.9672428259337380e-01 3.7262070710995071e-01
        2.5000000000000000e+00 9.6794727454283858e-02
        2.9757194603009490e-01 1.5790128619960395e+00
        3.0817239481977871e-02 1.3241907902773919e-01
        7.9608401248712379e-01 5.3247571065955956e-02
        3.6162626771061313e-01 5.5008940984015775e-01
        2.7998252222794728e-02 5.9607178403315775e-01
        7.6843945551177226e-02 5.4737489129213790e-01
        1.9252333173721690e+00 1.8597667679527624e-01
        -4.4545090044123159e-02 -7.1345012402219354e-01
        -3.0496242759382436e-01 -2.4553666536960714e-02
        -3.3909611123376771e-01 -9.2702540184469759e-02
        -1.8532812167226351e-01 -2.5000000000000000e+00
        -5.1050961515747884e-01 -1.8786513834686902e-01
        -4.5739105617634106e-02 -3.7919768481527066e-01
        -5.9875957470948693e-01 -7.5602121730437802e-02
        -5.6993056006784037e-01 -3.5024436191031350e-01
        -2.6868636954909109e-01 -9.2932348387695296e-01
        -2.6389715383882906e-01 -6.3825560259291286e-02
        -3.0277680661860962e-01 -2.2099973442910779e-02
        -7.4400350208198726e-02 -9.6402339414459109e-02
        -1.0870494679379189e-01 -7.1026549505577463e-02
        -2.8213708507283761e-02 -8.5526081539800236e-02
        -2.6876134413977659e-01 -4.2078918638080176e-01
        -3.9110689582885050e-01 -7.8560812023546911e-01
        -2.5000000000000000e+00 -1.2957012990024174e-02
        -8.6108327067171875e-01 -3.2145819485492910e-01
        -3.7227415975376998e-01 -5.3252943461125424e-01
        -1.8441578352591825e-01 -1.7284397432006349e-01
        -3.3002168845686564e-01 -1.5645118950066461e-01
        -1.1275871942187213e-01 -7.0802133464725292e-01
        -1.8060245969867061e-01 -1.8929173439616833e+00
        -5.0083066526536124e-01 -5.9579131752807479e-01
        -7.2143823577248778e-01 -6.0163602226131729e-01
        -7.1234139531172275e-02 -7.8461362199711671e-01
        -2.8318553221215753e-01 -9.2293555979627395e-01
        -4.7790344076817026e-01 -2.9758452197934887e-01
        -2.5176412869470877e-01 -5.4499093385448498e-02
        -1.9394255180796333e-01 -5.0263132151495882e-01
        -8.8576202690871048e-02 -2.3905996473531105e-01
        -1.7027365955832179e+00 -3.1890566968335671e-02
        -3.2859243857354381e-01 -3.9466559703799126e-01
        -3.2539688224936240e-02 -3.4934449853775484e-01
        -3.0354608992110171e-01 -8.0892437065509665e-02
        -4.4257084213724773e-01 -4.0076812821130570e-01
        -1.3099452040623738e-01</alpha>
      <index>
        96 95 97 99 98 94 91 90 89 93 92 106 105 104 103 101 102 100 80
        79 78 77 81 73 76 75 74 86 88 87 85 83 82 84 142 130 129 131 128
        123 122 121 127 126 125 124 137 141 140 139 138 134 133 132 136
        135 110 113 112 111 107 109 108 119 120 116 115 114 118 117 70
        72 71 20 19 21 16 15 14 18 17 25 24 23 26 22 4 0 3 2 1 11 10 13
        12 7 6 5 9 8 53 52 51 50 54 49 48 58 57 56 55 43 47 46 45 44 67
        66 65 64 69 68 61 60 59 63 62 31 32 30 29 28 27 41 40 39 38 42
        35 34 33 37 36</index></_></decision_functions></opencv_ml_svm>
</opencv_storage>
